{"learner":{"attributes":{"scikit_learn":"{\"_estimator_type\": \"ranker\"}"},"feature_names":["adaptability","avg_corner_speed","avg_lap_time","avg_sector_1","avg_sector_2","avg_sector_3","best_10_lap_avg","best_3_lap_avg","best_5_lap_avg","best_lap_time","best_sector_1","best_sector_2","best_sector_3","cold_skill","constructor_circuit_exp","constructor_quali_last","constructor_roll_quali_3","constructor_roll_quali_5","constructor_season_avg_quali","constructor_vs_field_season","cv_lap_time","deg_x_laps","degradation_rate","downforce_level","driver_circuit_exp","driver_circuit_roll_3","driver_quali_last","driver_roll_quali_3","driver_roll_quali_5","driver_season_avg_quali","driver_season_med_quali","driver_vs_field_season","field_season_avg_quali","fp_sessions_used","grip_level","is_street","lap_time_std","lap_time_variance","laps_per_session","long_run_avg","long_run_delta","long_run_laps","long_run_rank","median_lap_time","overtaking","overtaking_difficulty","p50_to_p95_avg","pace_consistency_ratio","pace_delta","pace_rank","prior_vs_fp_rank","quali_skill","quali_skill_x_ot_diff","roll_collision_dnf_rate_5_driver","roll_dnf_rate_5","roll_drivererror_dnf_rate_5_driver","roll_mech_dnf_rate_5_constructor","roll_mech_dnf_rate_5_driver","roll_quali_3","roll_quali_5","safety_car_probability","season_progress","sector_1_delta","sector_2_delta","sector_3_delta","short_run_best","sim_weighted_finishpos_3","sim_weighted_finishpos_5","sim_weighted_points_3","sim_weighted_points_5","sim_weighted_quali_3","sim_weighted_quali_5","sprint_grid","straight_line_importance","strategy_rating","strategy_sc_advantage","team_delta_last","team_delta_roll_3","team_delta_roll_5","theoretical_best","tire_mgmt","top3_vs_top5","top5_vs_top10","total_laps","track_evolution","turn1_incident_risk","weather_air_temp_quali","weather_humidity_quali","weather_precip_minutes_quali","weather_track_temp_quali","weather_was_wet_quali","wet_skill"],"feature_types":["int","int","float","float","float","float","float","float","float","float","float","float","float","int","float","float","float","float","float","float","float","float","float","int","float","float","float","float","float","float","float","float","float","float","int","int","float","float","float","float","float","float","float","float","int","int","float","float","float","float","float","int","int","float","float","float","float","float","float","float","int","float","float","float","float","float","float","float","float","float","float","float","int","int","int","int","float","float","float","float","int","float","float","float","int","int","float","float","float","float","float","int"],"gradient_booster":{"model":{"cats":{"enc":[],"feature_segments":[],"sorted_idx":[]},"gbtree_model_param":{"num_parallel_tree":"1","num_trees":"1200"},"iteration_indptr":[0,1,2,3,4,5,6,7,8,9,10,11,12,13,14,15,16,17,18,19,20,21,22,23,24,25,26,27,28,29,30,31,32,33,34,35,36,37,38,39,40,41,42,43,44,45,46,47,48,49,50,51,52,53,54,55,56,57,58,59,60,61,62,63,64,65,66,67,68,69,70,71,72,73,74,75,76,77,78,79,80,81,82,83,84,85,86,87,88,89,90,91,92,93,94,95,96,97,98,99,100,101,102,103,104,105,106,107,108,109,110,111,112,113,114,115,116,117,118,119,120,121,122,123,124,125,126,127,128,129,130,131,132,133,134,135,136,137,138,139,140,141,142,143,144,145,146,147,148,149,150,151,152,153,154,155,156,157,158,159,160,161,162,163,164,165,166,167,168,169,170,171,172,173,174,175,176,177,178,179,180,181,182,183,184,185,186,187,188,189,190,191,192,193,194,195,196,197,198,199,200,201,202,203,204,205,206,207,208,209,210,211,212,213,214,215,216,217,218,219,220,221,222,223,224,225,226,227,228,229,230,231,232,233,234,235,236,237,238,239,240,241,242,243,244,245,246,247,248,249,250,251,252,253,254,255,256,257,258,259,260,261,262,263,264,265,266,267,268,269,270,271,272,273,274,275,276,277,278,279,280,281,282,283,284,285,286,287,288,289,290,291,292,293,294,295,296,297,298,299,300,301,302,303,304,305,306,307,308,309,310,311,312,313,314,315,316,317,318,319,320,321,322,323,324,325,326,327,328,329,330,331,332,333,334,335,336,337,338,339,340,341,342,343,344,345,346,347,348,349,350,351,352,353,354,355,356,357,358,359,360,361,362,363,364,365,366,367,368,369,370,371,372,373,374,375,376,377,378,379,380,381,382,383,384,385,386,387,388,389,390,391,392,393,394,395,396,397,398,399,400,401,402,403,404,405,406,407,408,409,410,411,412,413,414,415,416,417,418,419,420,421,422,423,424,425,426,427,428,429,430,431,432,433,434,435,436,437,438,439,440,441,442,443,444,445,446,447,448,449,450,451,452,453,454,455,456,457,458,459,460,461,462,463,464,465,466,467,468,469,470,471,472,473,474,475,476,477,478,479,480,481,482,483,484,485,486,487,488,489,490,491,492,493,494,495,496,497,498,499,500,501,502,503,504,505,506,507,508,509,510,511,512,513,514,515,516,517,518,519,520,521,522,523,524,525,526,527,528,529,530,531,532,533,534,535,536,537,538,539,540,541,542,543,544,545,546,547,548,549,550,551,552,553,554,555,556,557,558,559,560,561,562,563,564,565,566,567,568,569,570,571,572,573,574,575,576,577,578,579,580,581,582,583,584,585,586,587,588,589,590,591,592,593,594,595,596,597,598,599,600,601,602,603,604,605,606,607,608,609,610,611,612,613,614,615,616,617,618,619,620,621,622,623,624,625,626,627,628,629,630,631,632,633,634,635,636,637,638,639,640,641,642,643,644,645,646,647,648,649,650,651,652,653,654,655,656,657,658,659,660,661,662,663,664,665,666,667,668,669,670,671,672,673,674,675,676,677,678,679,680,681,682,683,684,685,686,687,688,689,690,691,692,693,694,695,696,697,698,699,700,701,702,703,704,705,706,707,708,709,710,711,712,713,714,715,716,717,718,719,720,721,722,723,724,725,726,727,728,729,730,731,732,733,734,735,736,737,738,739,740,741,742,743,744,745,746,747,748,749,750,751,752,753,754,755,756,757,758,759,760,761,762,763,764,765,766,767,768,769,770,771,772,773,774,775,776,777,778,779,780,781,782,783,784,785,786,787,788,789,790,791,792,793,794,795,796,797,798,799,800,801,802,803,804,805,806,807,808,809,810,811,812,813,814,815,816,817,818,819,820,821,822,823,824,825,826,827,828,829,830,831,832,833,834,835,836,837,838,839,840,841,842,843,844,845,846,847,848,849,850,851,852,853,854,855,856,857,858,859,860,861,862,863,864,865,866,867,868,869,870,871,872,873,874,875,876,877,878,879,880,881,882,883,884,885,886,887,888,889,890,891,892,893,894,895,896,897,898,899,900,901,902,903,904,905,906,907,908,909,910,911,912,913,914,915,916,917,918,919,920,921,922,923,924,925,926,927,928,929,930,931,932,933,934,935,936,937,938,939,940,941,942,943,944,945,946,947,948,949,950,951,952,953,954,955,956,957,958,959,960,961,962,963,964,965,966,967,968,969,970,971,972,973,974,975,976,977,978,979,980,981,982,983,984,985,986,987,988,989,990,991,992,993,994,995,996,997,998,999,1000,1001,1002,1003,1004,1005,1006,1007,1008,1009,1010,1011,1012,1013,1014,1015,1016,1017,1018,1019,1020,1021,1022,1023,1024,1025,1026,1027,1028,1029,1030,1031,1032,1033,1034,1035,1036,1037,1038,1039,1040,1041,1042,1043,1044,1045,1046,1047,1048,1049,1050,1051,1052,1053,1054,1055,1056,1057,1058,1059,1060,1061,1062,1063,1064,1065,1066,1067,1068,1069,1070,1071,1072,1073,1074,1075,1076,1077,1078,1079,1080,1081,1082,1083,1084,1085,1086,1087,1088,1089,1090,1091,1092,1093,1094,1095,1096,1097,1098,1099,1100,1101,1102,1103,1104,1105,1106,1107,1108,1109,1110,1111,1112,1113,1114,1115,1116,1117,1118,1119,1120,1121,1122,1123,1124,1125,1126,1127,1128,1129,1130,1131,1132,1133,1134,1135,1136,1137,1138,1139,1140,1141,1142,1143,1144,1145,1146,1147,1148,1149,1150,1151,1152,1153,1154,1155,1156,1157,1158,1159,1160,1161,1162,1163,1164,1165,1166,1167,1168,1169,1170,1171,1172,1173,1174,1175,1176,1177,1178,1179,1180,1181,1182,1183,1184,1185,1186,1187,1188,1189,1190,1191,1192,1193,1194,1195,1196,1197,1198,1199,1200],"tree_info":[0,0,0,0,0,0,0,0,0,0,0,0,0,0,0,0,0,0,0,0,0,0,0,0,0,0,0,0,0,0,0,0,0,0,0,0,0,0,0,0,0,0,0,0,0,0,0,0,0,0,0,0,0,0,0,0,0,0,0,0,0,0,0,0,0,0,0,0,0,0,0,0,0,0,0,0,0,0,0,0,0,0,0,0,0,0,0,0,0,0,0,0,0,0,0,0,0,0,0,0,0,0,0,0,0,0,0,0,0,0,0,0,0,0,0,0,0,0,0,0,0,0,0,0,0,0,0,0,0,0,0,0,0,0,0,0,0,0,0,0,0,0,0,0,0,0,0,0,0,0,0,0,0,0,0,0,0,0,0,0,0,0,0,0,0,0,0,0,0,0,0,0,0,0,0,0,0,0,0,0,0,0,0,0,0,0,0,0,0,0,0,0,0,0,0,0,0,0,0,0,0,0,0,0,0,0,0,0,0,0,0,0,0,0,0,0,0,0,0,0,0,0,0,0,0,0,0,0,0,0,0,0,0,0,0,0,0,0,0,0,0,0,0,0,0,0,0,0,0,0,0,0,0,0,0,0,0,0,0,0,0,0,0,0,0,0,0,0,0,0,0,0,0,0,0,0,0,0,0,0,0,0,0,0,0,0,0,0,0,0,0,0,0,0,0,0,0,0,0,0,0,0,0,0,0,0,0,0,0,0,0,0,0,0,0,0,0,0,0,0,0,0,0,0,0,0,0,0,0,0,0,0,0,0,0,0,0,0,0,0,0,0,0,0,0,0,0,0,0,0,0,0,0,0,0,0,0,0,0,0,0,0,0,0,0,0,0,0,0,0,0,0,0,0,0,0,0,0,0,0,0,0,0,0,0,0,0,0,0,0,0,0,0,0,0,0,0,0,0,0,0,0,0,0,0,0,0,0,0,0,0,0,0,0,0,0,0,0,0,0,0,0,0,0,0,0,0,0,0,0,0,0,0,0,0,0,0,0,0,0,0,0,0,0,0,0,0,0,0,0,0,0,0,0,0,0,0,0,0,0,0,0,0,0,0,0,0,0,0,0,0,0,0,0,0,0,0,0,0,0,0,0,0,0,0,0,0,0,0,0,0,0,0,0,0,0,0,0,0,0,0,0,0,0,0,0,0,0,0,0,0,0,0,0,0,0,0,0,0,0,0,0,0,0,0,0,0,0,0,0,0,0,0,0,0,0,0,0,0,0,0,0,0,0,0,0,0,0,0,0,0,0,0,0,0,0,0,0,0,0,0,0,0,0,0,0,0,0,0,0,0,0,0,0,0,0,0,0,0,0,0,0,0,0,0,0,0,0,0,0,0,0,0,0,0,0,0,0,0,0,0,0,0,0,0,0,0,0,0,0,0,0,0,0,0,0,0,0,0,0,0,0,0,0,0,0,0,0,0,0,0,0,0,0,0,0,0,0,0,0,0,0,0,0,0,0,0,0,0,0,0,0,0,0,0,0,0,0,0,0,0,0,0,0,0,0,0,0,0,0,0,0,0,0,0,0,0,0,0,0,0,0,0,0,0,0,0,0,0,0,0,0,0,0,0,0,0,0,0,0,0,0,0,0,0,0,0,0,0,0,0,0,0,0,0,0,0,0,0,0,0,0,0,0,0,0,0,0,0,0,0,0,0,0,0,0,0,0,0,0,0,0,0,0,0,0,0,0,0,0,0,0,0,0,0,0,0,0,0,0,0,0,0,0,0,0,0,0,0,0,0,0,0,0,0,0,0,0,0,0,0,0,0,0,0,0,0,0,0,0,0,0,0,0,0,0,0,0,0,0,0,0,0,0,0,0,0,0,0,0,0,0,0,0,0,0,0,0,0,0,0,0,0,0,0,0,0,0,0,0,0,0,0,0,0,0,0,0,0,0,0,0,0,0,0,0,0,0,0,0,0,0,0,0,0,0,0,0,0,0,0,0,0,0,0,0,0,0,0,0,0,0,0,0,0,0,0,0,0,0,0,0,0,0,0,0,0,0,0,0,0,0,0,0,0,0,0,0,0,0,0,0,0,0,0,0,0,0,0,0,0,0,0,0,0,0,0,0,0,0,0,0,0,0,0,0,0,0,0,0,0,0,0,0,0,0,0,0,0,0,0,0,0,0,0,0,0,0,0,0,0,0,0,0,0,0,0,0,0,0,0,0,0,0,0,0,0,0,0,0,0,0,0,0,0,0,0,0,0,0,0,0,0,0,0,0,0,0,0,0,0,0,0,0,0,0,0,0,0,0,0,0,0,0,0,0,0,0,0,0,0,0,0,0,0,0,0,0,0,0,0,0,0,0,0,0,0,0,0,0,0,0,0,0,0,0,0,0,0,0,0,0,0,0,0,0,0,0,0,0,0,0,0,0,0,0,0,0,0,0,0,0,0,0,0,0,0,0,0,0,0,0,0,0,0,0,0,0,0,0,0,0,0,0,0,0,0,0,0,0,0,0,0,0,0,0,0,0,0,0,0,0,0,0,0,0,0,0,0,0,0,0,0,0,0,0,0,0,0,0,0,0,0,0,0,0,0,0,0,0,0,0,0,0,0,0,0,0,0,0,0,0,0,0,0,0,0,0,0,0,0,0,0,0,0,0,0,0,0,0,0,0,0,0,0,0,0,0,0,0,0,0,0,0,0,0,0,0,0,0,0,0,0,0,0,0,0,0,0,0,0,0,0,0,0,0,0,0,0,0],"trees":[{"base_weights":[7.3215873E-3,-3.1602263E-1,4.9714416E-1,-5.900542E-2,-4.6570995E-1,6.811403E-1,2.9322344E-1,-3.4780514E-3,3.8964194E-3,-8.64613E-3,-1.5954176E-2,1.9625822E-2,1.2874651E-2,8.426213E-3,-4.5869714E-3],"categories":[],"categories_nodes":[],"categories_segments":[],"categories_sizes":[],"default_left":[0,0,0,0,0,1,0,0,0,0,0,0,0,0,0],"id":0,"left_children":[1,3,5,7,9,11,13,-1,-1,-1,-1,-1,-1,-1,-1],"loss_changes":[1.4204129E2,2.0696629E1,1.3085838E1,3.4654458E0,6.727577E0,2.6849213E0,3.6537304E0,0E0,0E0,0E0,0E0,0E0,0E0,0E0,0E0],"parents":[2147483647,0,0,1,1,2,2,3,3,4,4,5,5,6,6],"right_children":[2,4,6,8,10,12,14,-1,-1,-1,-1,-1,-1,-1,-1],"split_conditions":[4.4731526E0,1.2315789E1,-4.868243E0,8E0,4.8846154E0,4E0,1.1571428E1,-3.4780514E-3,3.8964194E-3,-8.64613E-3,-1.5954176E-2,1.9625822E-2,1.2874651E-2,8.426213E-3,-4.5869714E-3],"split_indices":[69,18,31,51,31,49,18,0,0,0,0,0,0,0,0],"split_type":[0,0,0,0,0,0,0,0,0,0,0,0,0,0,0],"sum_hessian":[8.947249E2,5.39041E2,3.556839E2,1.9915271E2,3.3988834E2,1.8548846E2,1.7019543E2,1.4565834E2,5.3494366E1,2.0263435E2,1.3725397E2,1.1146518E2,7.402328E1,1.5632646E2,1.3868959E1],"tree_param":{"num_deleted":"0","num_feature":"92","num_nodes":"15","size_leaf_vector":"1"}},{"base_weights":[7.5824102E-3,3.6121514E-1,-1.8511891E-1,4.7696194E-1,1.5988079E-1,-1.2625356E-1,-4.9472183E-1,1.6385771E-2,9.75501E-3,4.693397E-3,-1.4583603E-2,-1.3271963E-3,-6.230784E-3,-7.3970766E-3,-1.4919147E-2],"categories":[],"categories_nodes":[],"categories_segments":[],"categories_sizes":[],"default_left":[0,0,0,0,0,0,0,0,0,0,0,0,0,0,0],"id":1,"left_children":[1,3,5,7,9,11,13,-1,-1,-1,-1,-1,-1,-1,-1],"loss_changes":[1.07635124E2,1.2844887E1,1.850224E1,5.1053085E0,4.3184996E0,7.6980896E0,3.034706E0,0E0,0E0,0E0,0E0,0E0,0E0,0E0,0E0],"parents":[2147483647,0,0,1,1,2,2,3,3,4,4,5,5,6,6],"right_children":[2,4,6,8,10,12,14,-1,-1,-1,-1,-1,-1,-1,-1],"split_conditions":[-1.5109891E0,6.3816814E0,5.3961635E0,3E0,1.4218131E1,3.1713395E0,1.9E1,1.6385771E-2,9.75501E-3,4.693397E-3,-1.4583603E-2,-1.3271963E-3,-6.230784E-3,-7.3970766E-3,-1.4919147E-2],"split_indices":[31,70,19,30,67,31,49,0,0,0,0,0,0,0,0],"split_type":[0,0,0,0,0,0,0,0,0,0,0,0,0,0,0],"sum_hessian":[1.5772502E3,5.5619763E2,1.0210527E3,3.5197946E2,2.0421815E2,8.593867E2,1.6166595E2,1.126176E2,2.3936188E2,1.9769092E2,6.5272393E0,5.402246E2,3.1916208E2,5.6483696E1,1.0518225E2],"tree_param":{"num_deleted":"0","num_feature":"92","num_nodes":"15","size_leaf_vector":"1"}},{"base_weights":[-3.865233E-3,-1.5939678E-1,3.4744582E-1,-4.8749648E-2,-3.0908966E-1,5.2814484E-1,2.3660395E-1,8.8446875E-5,-6.132463E-3,-5.806346E-3,-1.2609269E-2,1.5731853E-2,9.001837E-3,1.0958168E-3,8.166629E-3],"categories":[],"categories_nodes":[],"categories_segments":[],"categories_sizes":[],"default_left":[0,0,0,1,0,1,0,0,0,0,0,0,0,0,0],"id":2,"left_children":[1,3,5,7,9,11,13,-1,-1,-1,-1,-1,-1,-1,-1],"loss_changes":[8.407805E1,1.7621841E1,9.254314E0,6.3462687E0,6.604946E0,2.7056427E0,5.066145E0,0E0,0E0,0E0,0E0,0E0,0E0,0E0,0E0],"parents":[2147483647,0,0,1,1,2,2,3,3,4,4,5,5,6,6],"right_children":[2,4,6,8,10,12,14,-1,-1,-1,-1,-1,-1,-1,-1],"split_conditions":[5.3043156E0,1.3785714E1,-5.530303E0,1.4E1,5.9122806E0,4E0,1.04651165E1,8.8446875E-5,-6.132463E-3,-5.806346E-3,-1.2609269E-2,1.5731853E-2,9.001837E-3,1.0958168E-3,8.166629E-3],"split_indices":[69,29,19,49,19,49,32,0,0,0,0,0,0,0,0],"split_type":[0,0,0,0,0,0,0,0,0,0,0,0,0,0,0],"sum_hessian":[1.5370956E3,1.0659928E3,4.7110275E2,6.140814E2,4.5191138E2,1.773357E2,2.9376706E2,4.8541946E2,1.2866199E2,3.2624686E2,1.2566452E2,1.0863219E2,6.87035E1,9.437001E1,1.9939705E2],"tree_param":{"num_deleted":"0","num_feature":"92","num_nodes":"15","size_leaf_vector":"1"}},{"base_weights":[-2.9142415E-3,2.1109283E-1,-2.2346616E-1,3.8366422E-1,7.6505005E-2,-1.9069718E-1,-5.835227E-1,1.4562765E-2,7.2102733E-3,-1.3786254E-3,4.1878195E-3,-1.6934185E-3,-6.2394803E-3,-2.026417E-3,-1.7251933E-2],"categories":[],"categories_nodes":[],"categories_segments":[],"categories_sizes":[],"default_left":[0,0,0,0,0,0,0,0,0,0,0,0,0,0,0],"id":3,"left_children":[1,3,5,7,9,11,13,-1,-1,-1,-1,-1,-1,-1,-1],"loss_changes":[7.167631E1,1.7819973E1,8.637459E0,6.128498E0,5.22579E0,4.928257E0,3.1683617E0,0E0,0E0,0E0,0E0,0E0,0E0,0E0,0E0],"parents":[2147483647,0,0,1,1,2,2,3,3,4,4,5,5,6,6],"right_children":[2,4,6,8,10,12,14,-1,-1,-1,-1,-1,-1,-1,-1],"split_conditions":[8.305322E-1,7.125E0,1.9E1,4E0,1.0475096E1,1.5E1,5.1265526E0,1.4562765E-2,7.2102733E-3,-1.3786254E-3,4.1878195E-3,-1.6934185E-3,-6.2394803E-3,-2.026417E-3,-1.7251933E-2],"split_indices":[19,29,30,49,32,49,19,0,0,0,0,0,0,0,0],"split_type":[0,0,0,0,0,0,0,0,0,0,0,0,0,0,0],"sum_hessian":[1.5165507E3,7.694873E2,7.470634E2,3.3602948E2,4.3345782E2,6.86401E2,6.0662422E1,1.06836754E2,2.2919272E2,1.7688081E2,2.56577E2,2.2350829E2,4.6289273E2,1.1085788E1,4.9576633E1],"tree_param":{"num_deleted":"0","num_feature":"92","num_nodes":"15","size_leaf_vector":"1"}},{"base_weights":[3.1012443E-3,-1.3613501E-1,2.5737244E-1,4.381452E-2,-2.0347284E-1,1.51831E-1,4.0457824E-1,2.1577484E-3,-1.2178083E-2,-3.8903218E-3,-1.0532147E-2,8.817795E-3,1.4577585E-3,8.721946E-4,1.0987118E-2],"categories":[],"categories_nodes":[],"categories_segments":[],"categories_sizes":[],"default_left":[0,0,0,0,0,0,0,0,0,0,0,0,0,0,0],"id":4,"left_children":[1,3,5,7,9,11,13,-1,-1,-1,-1,-1,-1,-1,-1],"loss_changes":[5.3461807E1,1.1842855E1,8.18615E0,6.0034633E0,7.2812233E0,5.8235025E0,2.8042831E0,0E0,0E0,0E0,0E0,0E0,0E0,0E0,0E0],"parents":[2147483647,0,0,1,1,2,2,3,3,4,4,5,5,6,6],"right_children":[2,4,6,8,10,12,14,-1,-1,-1,-1,-1,-1,-1,-1],"split_conditions":[3.9397738E0,1.3E1,1.0342204E1,1.04525E2,1.6E1,7E0,7.1928E1,2.1577484E-3,-1.2178083E-2,-3.8903218E-3,-1.0532147E-2,8.817795E-3,1.4577585E-3,8.721946E-4,1.0987118E-2],"split_indices":[69,49,69,7,18,49,9,0,0,0,0,0,0,0,0],"split_type":[0,0,0,0,0,0,0,0,0,0,0,0,0,0,0],"sum_hessian":[1.5077278E3,9.7428876E2,5.33439E2,2.6499542E2,7.0929333E2,3.122659E2,2.211731E2,2.4630719E2,1.8688248E1,5.832988E2,1.2599448E2,9.797547E1,2.1429044E2,1.9501305E1,2.0167178E2],"tree_param":{"num_deleted":"0","num_feature":"92","num_nodes":"15","size_leaf_vector":"1"}},{"base_weights":[-4.705472E-4,2.1753752E-1,-1.4098129E-1,2.6217535E-1,-1.4751022E-1,-1.0831759E-1,-4.017821E-1,1.1510159E-2,4.7704414E-3,2.0395955E-5,-1.15373265E-2,-3.0343102E-3,1.2022606E-2,-1.847269E-2,-8.160054E-3],"categories":[],"categories_nodes":[],"categories_segments":[],"categories_sizes":[],"default_left":[0,1,0,0,0,1,0,0,0,0,0,0,0,0,0],"id":5,"left_children":[1,3,5,7,9,11,13,-1,-1,-1,-1,-1,-1,-1,-1],"loss_changes":[4.6240234E1,9.68745E0,7.728512E0,7.310005E0,3.0659695E0,6.3133173E0,2.2317638E0,0E0,0E0,0E0,0E0,0E0,0E0,0E0,0E0],"parents":[2147483647,0,0,1,1,2,2,3,3,4,4,5,5,6,6],"right_children":[2,4,6,8,10,12,14,-1,-1,-1,-1,-1,-1,-1,-1],"split_conditions":[1.0166667E1,1.3E1,6.115942E0,4.5E0,1.2333333E1,9.666667E0,6E0,1.1510159E-2,4.7704414E-3,2.0395955E-5,-1.15373265E-2,-3.0343102E-3,1.2022606E-2,-1.847269E-2,-8.160054E-3],"split_indices":[29,49,19,29,16,50,91,0,0,0,0,0,0,0,0],"split_type":[0,0,0,0,0,0,0,0,0,0,0,0,0,0,0],"sum_hessian":[1.5077655E3,5.9042993E2,9.1733563E2,5.2659406E2,6.383587E1,8.168313E2,1.0050432E2,1.3757062E2,3.8902344E2,4.3816017E1,2.0019852E1,8.000687E2,1.6762606E1,1.651489E1,8.398943E1],"tree_param":{"num_deleted":"0","num_feature":"92","num_nodes":"15","size_leaf_vector":"1"}},{"base_weights":[-2.0354674E-3,3.3330634E-1,-8.9858994E-2,2.4168354E-1,4.7929862E-1,-1.1626104E-2,-2.3353569E-1,7.615632E-3,8.43184E-4,7.123741E-3,1.42355785E-2,-1.9358405E-3,3.4357277E-3,-6.534589E-3,9.636143E-3],"categories":[],"categories_nodes":[],"categories_segments":[],"categories_sizes":[],"default_left":[0,0,0,0,0,0,1,0,0,0,0,0,0,0,0],"id":6,"left_children":[1,3,5,7,9,11,13,-1,-1,-1,-1,-1,-1,-1,-1],"loss_changes":[4.2866505E1,3.8518906E0,1.2947594E1,2.4166212E0,1.766901E0,7.350308E0,7.094366E0,0E0,0E0,0E0,0E0,0E0,0E0,0E0,0E0],"parents":[2147483647,0,0,1,1,2,2,3,3,4,4,5,5,6,6],"right_children":[2,4,6,8,10,12,14,-1,-1,-1,-1,-1,-1,-1,-1],"split_conditions":[6.6493554E0,1.3235997E1,1.4043478E1,7E0,-1.3333334E0,8E0,7E0,7.615632E-3,8.43184E-4,7.123741E-3,1.42355785E-2,-1.9358405E-3,3.4357277E-3,-6.534589E-3,9.636143E-3],"split_indices":[70,69,18,17,50,51,50,0,0,0,0,0,0,0,0],"split_type":[0,0,0,0,0,0,0,0,0,0,0,0,0,0,0],"sum_hessian":[1.4543342E3,3.010154E2,1.1533188E3,1.8699825E2,1.1401715E2,7.4787366E2,4.0544513E2,1.4282419E2,4.417407E1,3.7791977E1,7.6225174E1,5.196159E2,2.2825775E2,3.88697E2,1.6748138E1],"tree_param":{"num_deleted":"0","num_feature":"92","num_nodes":"15","size_leaf_vector":"1"}},{"base_weights":[1.5242682E-3,3.3445027E-1,-8.237726E-2,4.8864537E-1,2.5234345E-1,9.191105E-5,-2.3049839E-1,8.530493E-3,1.6089601E-2,9.824561E-3,4.5417156E-3,-1.511726E-3,3.50478E-3,-2.136326E-3,-9.158618E-3],"categories":[],"categories_nodes":[],"categories_segments":[],"categories_sizes":[],"default_left":[0,0,0,0,0,0,0,0,0,0,0,0,0,0,0],"id":7,"left_children":[1,3,5,7,9,11,13,-1,-1,-1,-1,-1,-1,-1,-1],"loss_changes":[4.0952957E1,3.539528E0,1.4315838E1,1.9905243E0,1.8103304E0,6.398194E0,8.177441E0,0E0,0E0,0E0,0E0,0E0,0E0,0E0,0E0],"parents":[2147483647,0,0,1,1,2,2,3,3,4,4,5,5,6,6],"right_children":[2,4,6,8,10,12,14,-1,-1,-1,-1,-1,-1,-1,-1],"split_conditions":[6.5740237E0,4E0,3.090909E0,1.5810989E-1,3.9836934E0,8E0,0E0,8.530493E-3,1.6089601E-2,9.824561E-3,4.5417156E-3,-1.511726E-3,3.50478E-3,-2.136326E-3,-9.158618E-3],"split_indices":[70,49,19,22,71,51,78,0,0,0,0,0,0,0,0],"split_type":[0,0,0,0,0,0,0,0,0,0,0,0,0,0,0],"sum_hessian":[1.463225E3,2.9416544E2,1.1690596E3,1.0006884E2,1.940966E2,7.51161E2,4.178985E2,5.3249306E1,4.6819534E1,6.2917953E1,1.3117865E2,5.243528E2,2.2680823E2,2.032501E2,2.1464838E2],"tree_param":{"num_deleted":"0","num_feature":"92","num_nodes":"15","size_leaf_vector":"1"}},{"base_weights":[3.9982647E-3,2.2835946E-1,-1.093467E-1,2.703605E-1,-1.5911084E-1,-4.9529322E-3,-2.2815964E-1,1.1994504E-2,5.1243193E-3,7.4251145E-3,-6.4124563E-3,7.891613E-4,-6.5048407E-3,9.23559E-3,-6.424694E-3],"categories":[],"categories_nodes":[],"categories_segments":[],"categories_sizes":[],"default_left":[0,1,0,0,0,0,0,0,0,0,0,0,0,0,0],"id":8,"left_children":[1,3,5,7,9,11,13,-1,-1,-1,-1,-1,-1,-1,-1],"loss_changes":[3.7438145E1,8.097605E0,1.2099738E1,5.947525E0,2.2368293E0,4.894805E0,7.95142E0,0E0,0E0,0E0,0E0,0E0,0E0,0E0,0E0],"parents":[2147483647,0,0,1,1,2,2,3,3,4,4,5,5,6,6],"right_children":[2,4,6,8,10,12,14,-1,-1,-1,-1,-1,-1,-1,-1],"split_conditions":[9.428572E0,7E0,2.8531995E0,4E0,3.75E0,1.5790322E1,7E0,1.1994504E-2,5.1243193E-3,7.4251145E-3,-6.4124563E-3,7.891613E-4,-6.5048407E-3,9.23559E-3,-6.424694E-3],"split_indices":[29,72,19,49,24,66,49,0,0,0,0,0,0,0,0],"split_type":[0,0,0,0,0,0,0,0,0,0,0,0,0,0,0],"sum_hessian":[1.4697417E3,4.9324774E2,9.764939E2,4.4551508E2,4.7732643E1,5.207902E2,4.5570367E2,1.0413411E2,3.4138098E2,7.857125E0,3.987552E1,4.5602722E2,6.476302E1,2.026861E1,4.3543506E2],"tree_param":{"num_deleted":"0","num_feature":"92","num_nodes":"15","size_leaf_vector":"1"}},{"base_weights":[4.9314243E-3,-1.1489779E-1,2.3366219E-1,-2.37183E-1,-4.3100853E-2,4.2891824E-1,1.5144563E-1,-1.9496087E-3,-7.5486503E-3,-3.5735474E-3,1.7204647E-3,7.046979E-3,1.3161018E-2,4.2623533E-3,-7.6491437E-3],"categories":[],"categories_nodes":[],"categories_segments":[],"categories_sizes":[],"default_left":[0,0,0,0,0,0,0,0,0,0,0,0,0,0,0],"id":9,"left_children":[1,3,5,7,9,11,13,-1,-1,-1,-1,-1,-1,-1,-1],"loss_changes":[3.971859E1,8.305957E0,7.876625E0,3.5557232E0,6.7279263E0,1.8750801E0,3.1105556E0,0E0,0E0,0E0,0E0,0E0,0E0,0E0,0E0],"parents":[2147483647,0,0,1,1,2,2,3,3,4,4,5,5,6,6],"right_children":[2,4,6,8,10,12,14,-1,-1,-1,-1,-1,-1,-1,-1],"split_conditions":[3.9397738E0,7E0,-5.530303E0,1.1E1,3.3333333E0,1.1684637E1,1.8E1,-1.9496087E-3,-7.5486503E-3,-3.5735474E-3,1.7204647E-3,7.046979E-3,1.3161018E-2,4.2623533E-3,-7.6491437E-3],"split_indices":[69,51,19,15,50,68,26,0,0,0,0,0,0,0,0],"split_type":[0,0,0,0,0,0,0,0,0,0,0,0,0,0,0],"sum_hessian":[1.4467145E3,9.4939734E2,4.9731705E2,3.4984378E2,5.995536E2,1.457477E2,3.5156937E2,1.0224823E2,2.4759555E2,3.172012E2,2.823524E2,6.0079266E1,8.5668434E1,3.3832596E2,1.3243407E1],"tree_param":{"num_deleted":"0","num_feature":"92","num_nodes":"15","size_leaf_vector":"1"}},{"base_weights":[-7.3656195E-4,1.9351435E-1,-1.187168E-1,4.982082E-1,1.4554906E-1,-8.539779E-2,-3.9751983E-1,1.358078E-2,2.5482047E-3,1.0407266E-3,6.1483956E-3,-1.707981E-3,-1.1455768E-2,-6.250755E-3,-1.3432065E-2],"categories":[],"categories_nodes":[],"categories_segments":[],"categories_sizes":[],"default_left":[0,0,0,0,1,1,0,0,0,0,0,0,0,0,0],"id":10,"left_children":[1,3,5,7,9,11,13,-1,-1,-1,-1,-1,-1,-1,-1],"loss_changes":[3.272273E1,7.745241E0,8.174481E0,1.1764545E0,4.8398266E0,4.981595E0,1.7305517E0,0E0,0E0,0E0,0E0,0E0,0E0,0E0,0E0],"parents":[2147483647,0,0,1,1,2,2,3,3,4,4,5,5,6,6],"right_children":[2,4,6,8,10,12,14,-1,-1,-1,-1,-1,-1,-1,-1],"split_conditions":[1.0166667E1,3.32901E0,6.115942E0,9E0,-1.6666666E0,1.8E1,1.75E1,1.358078E-2,2.5482047E-3,1.0407266E-3,6.1483956E-3,-1.707981E-3,-1.1455768E-2,-6.250755E-3,-1.3432065E-2],"split_indices":[29,71,19,23,50,72,27,0,0,0,0,0,0,0,0],"split_type":[0,0,0,0,0,0,0,0,0,0,0,0,0,0,0],"sum_hessian":[1.4261562E3,5.383278E2,8.8782837E2,7.1657875E1,4.6666995E2,7.9454E2,9.328841E1,6.3787544E1,7.870333E0,2.3048427E2,2.3618568E2,7.6112616E2,3.3413826E1,4.709461E1,4.61938E1],"tree_param":{"num_deleted":"0","num_feature":"92","num_nodes":"15","size_leaf_vector":"1"}},{"base_weights":[-9.434069E-3,-1.09011576E-1,2.4292928E-1,-2.3519548E-2,-2.0348622E-1,4.9456447E-1,1.9056307E-1,-1.2495556E-3,7.828652E-3,-9.863345E-4,-7.6663694E-3,1.4616029E-2,7.4822525E-3,5.503276E-3,-1.0166796E-3],"categories":[],"categories_nodes":[],"categories_segments":[],"categories_sizes":[],"default_left":[0,0,0,1,0,1,1,0,0,0,0,0,0,0,0],"id":11,"left_children":[1,3,5,7,9,11,13,-1,-1,-1,-1,-1,-1,-1,-1],"loss_changes":[3.5756527E1,8.21809E0,5.1405964E0,4.7789454E0,8.148819E0,9.392586E-1,2.317935E0,0E0,0E0,0E0,0E0,0E0,0E0,0E0,0E0],"parents":[2147483647,0,0,1,1,2,2,3,3,4,4,5,5,6,6],"right_children":[2,4,6,8,10,12,14,-1,-1,-1,-1,-1,-1,-1,-1],"split_conditions":[5.2E0,2.5772123E0,3.32901E0,1.2696813E0,-1.5E0,4E0,5.1343045E0,-1.2495556E-3,7.828652E-3,-9.863345E-4,-7.6663694E-3,1.4616029E-2,7.4822525E-3,5.503276E-3,-1.0166796E-3],"split_indices":[69,19,71,22,77,49,62,0,0,0,0,0,0,0,0],"split_type":[0,0,0,0,0,0,0,0,0,0,0,0,0,0,0],"sum_hessian":[1.4213575E3,1.01989276E3,4.0146487E2,5.366105E2,4.832823E2,6.737139E1,3.3409348E2,4.9857028E2,3.8040184E1,1.8750711E2,2.9577515E2,4.438932E1,2.298207E1,2.9664166E2,3.74518E1],"tree_param":{"num_deleted":"0","num_feature":"92","num_nodes":"15","size_leaf_vector":"1"}},{"base_weights":[-2.5849189E-3,-8.844701E-2,2.446259E-1,-6.254513E-2,-4.166194E-1,4.4226408E-1,1.8484867E-1,-3.9049485E-3,7.04513E-4,-1.2736047E-2,4.0165596E-3,7.985718E-3,1.3182233E-2,5.3524127E-4,6.5153474E-3],"categories":[],"categories_nodes":[],"categories_segments":[],"categories_sizes":[],"default_left":[0,1,0,0,0,0,0,0,0,0,0,0,0,0,0],"id":12,"left_children":[1,3,5,7,9,11,13,-1,-1,-1,-1,-1,-1,-1,-1],"loss_changes":[2.9651106E1,8.746229E0,4.1086884E0,8.201139E0,4.159585E0,6.084652E-1,3.4149818E0,0E0,0E0,0E0,0E0,0E0,0E0,0E0,0E0],"parents":[2147483647,0,0,1,1,2,2,3,3,4,4,5,5,6,6],"right_children":[2,4,6,8,10,12,14,-1,-1,-1,-1,-1,-1,-1,-1],"split_conditions":[6.2888284E0,1.9E1,-6.6546464E0,1.0478048E1,2.9134128E0,-2.3446667E-1,8E0,-3.9049485E-3,7.04513E-4,-1.2736047E-2,4.0165596E-3,7.985718E-3,1.3182233E-2,5.3524127E-4,6.5153474E-3],"split_indices":[69,49,19,32,69,81,91,0,0,0,0,0,0,0,0],"split_type":[0,0,0,0,0,0,0,0,0,0,0,0,0,0,0],"sum_hessian":[1.3956378E3,1.0366365E3,3.5900134E2,9.621885E2,7.4448E1,8.149325E1,2.775081E2,4.7364374E2,4.8854474E2,6.438597E1,1.0062027E1,3.576165E1,4.57316E1,8.8721825E1,1.8878627E2],"tree_param":{"num_deleted":"0","num_feature":"92","num_nodes":"15","size_leaf_vector":"1"}},{"base_weights":[-1.4090169E-2,2.9421648E-1,-8.896331E-2,3.8087952E-1,1.421569E-1,-1.5573706E-2,-1.852492E-1,5.4206885E-3,1.1470812E-2,-2.1150468E-4,7.0181484E-3,6.967284E-3,-8.750874E-4,-4.093589E-3,-1.5096216E-2],"categories":[],"categories_nodes":[],"categories_segments":[],"categories_sizes":[],"default_left":[0,0,0,0,0,0,1,0,0,0,0,0,0,0,0],"id":13,"left_children":[1,3,5,7,9,11,13,-1,-1,-1,-1,-1,-1,-1,-1],"loss_changes":[3.2671837E1,3.5370235E0,8.030062E0,2.0721512E0,2.1664722E0,3.6925337E0,4.2556305E0,0E0,0E0,0E0,0E0,0E0,0E0,0E0,0E0],"parents":[2147483647,0,0,1,1,2,2,3,3,4,4,5,5,6,6],"right_children":[2,4,6,8,10,12,14,-1,-1,-1,-1,-1,-1,-1,-1],"split_conditions":[6.5740237E0,-4.868243E0,2.5772123E0,-1E0,1.0483517E1,9E0,1.9E1,5.4206885E-3,1.1470812E-2,-2.1150468E-4,7.0181484E-3,6.967284E-3,-8.750874E-4,-4.093589E-3,-1.5096216E-2],"split_indices":[70,31,19,50,32,72,72,0,0,0,0,0,0,0,0],"split_type":[0,0,0,0,0,0,0,0,0,0,0,0,0,0,0],"sum_hessian":[1.4141078E3,2.7548254E2,1.1386252E3,1.7409721E2,1.01385345E2,6.4738513E2,4.9124005E2,5.7710304E1,1.1638691E2,4.8684837E1,5.2700512E1,3.8952805E1,6.084323E2,4.6878613E2,2.2453922E1],"tree_param":{"num_deleted":"0","num_feature":"92","num_nodes":"15","size_leaf_vector":"1"}},{"base_weights":[-4.090501E-3,-9.9406764E-2,1.89587E-1,-6.1323345E-2,-2.5353578E-1,2.1504861E-1,-3.4876522E-1,-1.1185488E-3,-1.3041722E-2,7.081763E-3,-7.2794505E-3,9.343354E-3,3.654105E-3,-1.068444E-2,1.3562188E-3],"categories":[],"categories_nodes":[],"categories_segments":[],"categories_sizes":[],"default_left":[0,0,1,1,0,0,0,0,0,0,0,0,0,0,0],"id":14,"left_children":[1,3,5,7,9,11,13,-1,-1,-1,-1,-1,-1,-1,-1],"loss_changes":[2.6025396E1,5.502529E0,6.4327545E0,5.7209606E0,3.85149E0,4.7533245E0,7.319672E-1,0E0,0E0,0E0,0E0,0E0,0E0,0E0,0E0],"parents":[2147483647,0,0,1,1,2,2,3,3,4,4,5,5,6,6],"right_children":[2,4,6,8,10,12,14,-1,-1,-1,-1,-1,-1,-1,-1],"split_conditions":[3.9397738E0,5.1218286E0,1.1E1,1.051358E2,-2.305398E1,-5.530303E0,1.0780119E1,-1.1185488E-3,-1.3041722E-2,7.081763E-3,-7.2794505E-3,9.343354E-3,3.654105E-3,-1.068444E-2,1.3562188E-3],"split_indices":[69,31,72,8,21,19,68,0,0,0,0,0,0,0,0],"split_type":[0,0,0,0,0,0,0,0,0,0,0,0,0,0,0],"sum_hessian":[1.4082471E3,9.4444965E2,4.637975E2,7.5896515E2,1.8548447E2,4.4360336E2,2.019412E1,7.338468E2,2.511834E1,1.1552691E1,1.7393178E2,1.3249777E2,3.111056E2,1.7055025E1,3.1390963E0],"tree_param":{"num_deleted":"0","num_feature":"92","num_nodes":"15","size_leaf_vector":"1"}},{"base_weights":[6.1353026E-3,1.4078183E-1,-1.3080329E-1,3.1458914E-1,7.616892E-2,-1.6059761E-1,1.6421583E-1,1.0038929E-2,4.106683E-3,-1.0896991E-2,2.32212E-3,-3.6336337E-3,-1.4378564E-2,-7.5351074E-3,6.3694753E-3],"categories":[],"categories_nodes":[],"categories_segments":[],"categories_sizes":[],"default_left":[0,0,0,1,0,1,0,0,0,0,0,0,0,0,0],"id":15,"left_children":[1,3,5,7,9,11,13,-1,-1,-1,-1,-1,-1,-1,-1],"loss_changes":[2.6072731E1,7.9475956E0,6.1849785E0,2.3949833E0,4.4719396E0,3.8733902E0,2.7902317E0,0E0,0E0,0E0,0E0,0E0,0E0,0E0,0E0],"parents":[2147483647,0,0,1,1,2,2,3,3,4,4,5,5,6,6],"right_children":[2,4,6,8,10,12,14,-1,-1,-1,-1,-1,-1,-1,-1],"split_conditions":[8.6565655E-1,-4.868243E0,4.9E1,5E0,-5.0289333E1,1.04525E2,1.2333333E1,1.0038929E-2,4.106683E-3,-1.0896991E-2,2.32212E-3,-3.6336337E-3,-1.4378564E-2,-7.5351074E-3,6.3694753E-3],"split_indices":[19,31,75,49,21,7,38,0,0,0,0,0,0,0,0],"split_type":[0,0,0,0,0,0,0,0,0,0,0,0,0,0,0],"sum_hessian":[1.4119995E3,7.1231213E2,6.996874E2,1.915718E2,5.2074036E2,6.362285E2,6.3458836E1,1.1987949E2,7.16923E1,1.5480367E1,5.0526E2,6.15186E2,2.1042555E1,9.774103E0,5.368473E1],"tree_param":{"num_deleted":"0","num_feature":"92","num_nodes":"15","size_leaf_vector":"1"}},{"base_weights":[-6.3451747E-3,2.159361E-1,-1.120648E-1,2.334034E-1,-3.8445848E-1,-9.515472E-3,-1.7107779E-1,1.3317572E-2,5.13533E-3,-1.7809616E-2,-1.9108994E-3,-6.6017825E-4,1.574761E-2,-7.6269703E-3,-2.886178E-3],"categories":[],"categories_nodes":[],"categories_segments":[],"categories_sizes":[],"default_left":[0,0,0,0,0,0,0,0,0,0,0,0,0,0,0],"id":16,"left_children":[1,3,5,7,9,11,13,-1,-1,-1,-1,-1,-1,-1,-1],"loss_changes":[3.2717697E1,4.779196E0,5.6936827E0,3.4751968E0,1.1694782E0,3.6989915E0,4.3847904E0,0E0,0E0,0E0,0E0,0E0,0E0,0E0,0E0],"parents":[2147483647,0,0,1,1,2,2,3,3,4,4,5,5,6,6],"right_children":[2,4,6,8,10,12,14,-1,-1,-1,-1,-1,-1,-1,-1],"split_conditions":[9.333333E0,1.38E1,1.786928E0,5E0,4.361927E0,1.5901887E1,1.0440594E1,1.3317572E-2,5.13533E-3,-1.7809616E-2,-1.9108994E-3,-6.6017825E-4,1.574761E-2,-7.6269703E-3,-2.886178E-3],"split_indices":[29,67,19,72,63,67,32,0,0,0,0,0,0,0,0],"split_type":[0,0,0,0,0,0,0,0,0,0,0,0,0,0,0],"sum_hessian":[1.3906848E3,4.4759775E2,9.4308704E2,4.356997E2,1.1898025E1,3.4551935E2,5.975677E2,3.5413918E1,4.002858E2,4.969736E0,6.9282885E0,3.3771304E2,7.806327E0,1.7346068E2,4.24107E2],"tree_param":{"num_deleted":"0","num_feature":"92","num_nodes":"15","size_leaf_vector":"1"}},{"base_weights":[6.1180373E-3,1.9006814E-1,-8.4338345E-2,3.921788E-1,1.3742995E-1,-6.520706E-2,-4.4108433E-1,-5.027771E-3,1.0416138E-2,-8.039118E-3,4.038763E-3,-3.271081E-3,5.9550395E-4,-1.165395E-3,-1.3116933E-2],"categories":[],"categories_nodes":[],"categories_segments":[],"categories_sizes":[],"default_left":[0,0,0,0,0,0,0,0,0,0,0,0,0,0,0],"id":17,"left_children":[1,3,5,7,9,11,13,-1,-1,-1,-1,-1,-1,-1,-1],"loss_changes":[2.33717E1,4.820589E0,6.34182E0,1.4810076E0,4.125552E0,5.240094E0,1.4829617E0,0E0,0E0,0E0,0E0,0E0,0E0,0E0,0E0],"parents":[2147483647,0,0,1,1,2,2,3,3,4,4,5,5,6,6],"right_children":[2,4,6,8,10,12,14,-1,-1,-1,-1,-1,-1,-1,-1],"split_conditions":[9.333333E0,3.9836934E0,1.78E1,8.254709E1,7.993872E-1,2E-1,9.458616E1,-5.027771E-3,1.0416138E-2,-8.039118E-3,4.038763E-3,-3.271081E-3,5.9550395E-4,-1.165395E-3,-1.3116933E-2],"split_indices":[29,71,17,46,47,56,46,0,0,0,0,0,0,0,0],"split_type":[0,0,0,0,0,0,0,0,0,0,0,0,0,0,0],"sum_hessian":[1.4019961E3,4.6216064E2,9.398354E2,9.376983E1,3.683908E2,8.9338855E2,4.6446827E1,3.2659993E0,9.050383E1,1.7570038E1,3.5082077E2,5.146278E2,3.7876074E2,8.603155E0,3.7843674E1],"tree_param":{"num_deleted":"0","num_feature":"92","num_nodes":"15","size_leaf_vector":"1"}},{"base_weights":[-7.2479607E-3,-7.92544E-2,2.4655174E-1,-1.1228941E-1,1.1407336E-1,1.4414507E-1,3.811089E-1,-1.3068205E-3,-5.453953E-3,4.0635588E-3,-1.2821659E-2,4.290221E-3,-6.0543385E-3,1.1345217E-2,4.887814E-3],"categories":[],"categories_nodes":[],"categories_segments":[],"categories_sizes":[],"default_left":[0,1,0,0,0,1,1,0,0,0,0,0,0,0,0],"id":18,"left_children":[1,3,5,7,9,11,13,-1,-1,-1,-1,-1,-1,-1,-1],"loss_changes":[2.5600407E1,6.9878902E0,4.157301E0,5.8943567E0,4.893385E0,1.9206622E0,1.6371536E0,0E0,0E0,0E0,0E0,0E0,0E0,0E0,0E0],"parents":[2147483647,0,0,1,1,2,2,3,3,4,4,5,5,6,6],"right_children":[2,4,6,8,10,12,14,-1,-1,-1,-1,-1,-1,-1,-1],"split_conditions":[6.815572E0,3.6666667E0,1.0504202E1,1.3884615E1,7.5E0,5.458139E0,1.4945724E1,-1.3068205E-3,-5.453953E-3,4.0635588E-3,-1.2821659E-2,4.290221E-3,-6.0543385E-3,1.1345217E-2,4.887814E-3],"split_indices":[69,50,32,18,77,62,48,0,0,0,0,0,0,0,0],"split_type":[0,0,0,0,0,0,0,0,0,0,0,0,0,0,0],"sum_hessian":[1.3996731E3,1.0911738E3,3.084992E2,9.3272955E2,1.5844432E2,1.7677585E2,1.3172334E2,5.968281E2,3.359014E2,1.479096E2,1.0534715E1,1.6580336E2,1.0972485E1,9.322309E1,3.850026E1],"tree_param":{"num_deleted":"0","num_feature":"92","num_nodes":"15","size_leaf_vector":"1"}},{"base_weights":[-7.2934306E-3,-9.6339494E-2,1.7043877E-1,-5.8564257E-2,-2.294405E-1,2.2797327E-1,-1.0384469E-1,-4.6822513E-3,4.299615E-6,1.6632922E-3,-7.669368E-3,1.1967603E-2,4.4078254E-3,1.0129772E-2,-3.8198277E-3],"categories":[],"categories_nodes":[],"categories_segments":[],"categories_sizes":[],"default_left":[0,1,1,0,0,0,0,0,0,0,0,0,0,0,0],"id":19,"left_children":[1,3,5,7,9,11,13,-1,-1,-1,-1,-1,-1,-1,-1],"loss_changes":[2.1910742E1,4.5984154E0,7.3252363E0,5.469101E0,4.69343E0,4.803587E0,2.0418372E0,0E0,0E0,0E0,0E0,0E0,0E0,0E0,0E0],"parents":[2147483647,0,0,1,1,2,2,3,3,4,4,5,5,6,6],"right_children":[2,4,6,8,10,12,14,-1,-1,-1,-1,-1,-1,-1,-1],"split_conditions":[8E0,1.5E1,5E0,7E0,1.9E1,-6.591856E0,3E0,-4.6822513E-3,4.299615E-6,1.6632922E-3,-7.669368E-3,1.1967603E-2,4.4078254E-3,1.0129772E-2,-3.8198277E-3],"split_indices":[51,49,72,44,72,19,25,0,0,0,0,0,0,0,0],"split_type":[0,0,0,0,0,0,0,0,0,0,0,0,0,0,0],"sum_hessian":[1.3828772E3,9.219762E2,4.6090106E2,7.198638E2,2.0211241E2,3.8142557E2,7.94755E1,2.2539784E2,4.9446594E2,4.16307E1,1.604817E2,6.3419518E1,3.1800604E2,6.1542225E0,7.332128E1],"tree_param":{"num_deleted":"0","num_feature":"92","num_nodes":"15","size_leaf_vector":"1"}},{"base_weights":[1.0769334E-2,1.978798E-1,-7.89705E-2,2.2118181E-1,-2.4874899E-1,-1.7724456E-1,7.381709E-3,2.9542749E-3,7.5418586E-3,-1.1598565E-2,7.754308E-3,-7.601458E-3,-2.5601943E-3,1.1677743E-3,-9.17337E-3],"categories":[],"categories_nodes":[],"categories_segments":[],"categories_sizes":[],"default_left":[0,1,0,0,0,0,0,0,0,0,0,0,0,0,0],"id":20,"left_children":[1,3,5,7,9,11,13,-1,-1,-1,-1,-1,-1,-1,-1],"loss_changes":[2.325104E1,4.724783E0,7.953798E0,3.4665527E0,2.8679233E0,4.0844536E0,7.318885E0,0E0,0E0,0E0,0E0,0E0,0E0,0E0,0E0],"parents":[2147483647,0,0,1,1,2,2,3,3,4,4,5,5,6,6],"right_children":[2,4,6,8,10,12,14,-1,-1,-1,-1,-1,-1,-1,-1],"split_conditions":[9.428572E0,1.1E1,1.0477612E1,9E0,2.6189743E1,7E0,6.2937126E0,2.9542749E-3,7.5418586E-3,-1.1598565E-2,7.754308E-3,-7.601458E-3,-2.5601943E-3,1.1677743E-3,-9.17337E-3],"split_indices":[29,72,32,51,86,44,19,0,0,0,0,0,0,0,0],"split_type":[0,0,0,0,0,0,0,0,0,0,0,0,0,0,0],"sum_hessian":[1.3820719E3,4.4796326E2,9.3410864E2,4.2644305E2,2.1520184E1,4.3694458E2,4.9716403E2,1.88684E2,2.3775906E2,1.5789734E1,5.73045E0,1.6052676E2,2.7641785E2,4.5092764E2,4.6236397E1],"tree_param":{"num_deleted":"0","num_feature":"92","num_nodes":"15","size_leaf_vector":"1"}},{"base_weights":[1.1530339E-3,-9.0325885E-2,1.8695663E-1,-1.6561876E-1,6.0755044E-4,2.2619402E-1,-7.681489E-2,-3.580216E-3,-1.1423576E-2,-3.1142125E-3,2.7675433E-3,9.826909E-3,4.2942846E-3,-1.5419773E-2,4.5593732E-4],"categories":[],"categories_nodes":[],"categories_segments":[],"categories_sizes":[],"default_left":[0,0,0,0,0,0,0,0,0,0,0,0,0,0,0],"id":21,"left_children":[1,3,5,7,9,11,13,-1,-1,-1,-1,-1,-1,-1,-1],"loss_changes":[2.356329E1,6.371771E0,4.767639E0,3.1935816E0,5.811988E0,3.4985943E0,3.1333928E0,0E0,0E0,0E0,0E0,0E0,0E0,0E0,0E0],"parents":[2147483647,0,0,1,1,2,2,3,3,4,4,5,5,6,6],"right_children":[2,4,6,8,10,12,14,-1,-1,-1,-1,-1,-1,-1,-1],"split_conditions":[8E0,7.1188766E-1,1.282631E0,7.625391E0,1.0477612E1,4E0,-7.6666665E0,-3.580216E-3,-1.1423576E-2,-3.1142125E-3,2.7675433E-3,9.826909E-3,4.2942846E-3,-1.5419773E-2,4.5593732E-4],"split_indices":[51,68,19,31,32,30,77,0,0,0,0,0,0,0,0],"split_type":[0,0,0,0,0,0,0,0,0,0,0,0,0,0,0],"sum_hessian":[1.3837494E3,9.272171E2,4.5653226E2,5.0738263E2,4.1983447E2,3.9786877E2,5.866349E1,4.7284393E2,3.4538704E1,1.9597403E2,2.2386043E2,9.5860565E1,3.020082E2,8.116749E0,5.054674E1],"tree_param":{"num_deleted":"0","num_feature":"92","num_nodes":"15","size_leaf_vector":"1"}},{"base_weights":[6.680912E-4,2.5516507E-1,-5.3928625E-2,1.7356537E-1,3.9625964E-1,-1.3858233E-1,5.0387983E-3,6.9040316E-3,-4.865604E-4,8.52164E-4,1.1474439E-2,-4.4923816E-3,4.1959886E-4,7.2817534E-4,-8.242424E-3],"categories":[],"categories_nodes":[],"categories_segments":[],"categories_sizes":[],"default_left":[0,0,0,0,0,0,0,0,0,0,0,0,0,0,0],"id":22,"left_children":[1,3,5,7,9,11,13,-1,-1,-1,-1,-1,-1,-1,-1],"loss_changes":[1.917609E1,2.681651E0,5.6788664E0,3.1347308E0,1.9366703E0,3.0001392E0,5.3751016E0,0E0,0E0,0E0,0E0,0E0,0E0,0E0,0E0],"parents":[2147483647,0,0,1,1,2,2,3,3,4,4,5,5,6,6],"right_children":[2,4,6,8,10,12,14,-1,-1,-1,-1,-1,-1,-1,-1],"split_conditions":[6.3816814E0,1E0,1.0466216E1,-4.868243E0,1.0415865E1,3.330883E0,6.2937126E0,6.9040316E-3,-4.865604E-4,8.52164E-4,1.1474439E-2,-4.4923816E-3,4.1959886E-4,7.2817534E-4,-8.242424E-3],"split_indices":[70,76,32,31,32,69,19,0,0,0,0,0,0,0,0],"split_type":[0,0,0,0,0,0,0,0,0,0,0,0,0,0,0],"sum_hessian":[1.3766625E3,2.4284119E2,1.1338213E3,1.5572127E2,8.711993E1,4.6566196E2,6.681593E2,1.0173541E2,5.3985847E1,1.3322911E1,7.379701E1,3.686082E2,9.705378E1,6.244355E2,4.3723827E1],"tree_param":{"num_deleted":"0","num_feature":"92","num_nodes":"15","size_leaf_vector":"1"}},{"base_weights":[-1.1570132E-3,-6.239215E-2,2.2120856E-1,-4.0370405E-2,-3.2418895E-1,3.538697E-1,1.5863994E-1,4.3651485E-3,-1.5171547E-3,-2.8684127E-4,-1.0006304E-2,1.041473E-2,6.02197E-4,4.8258407E-3,-2.4278562E-3],"categories":[],"categories_nodes":[],"categories_segments":[],"categories_sizes":[],"default_left":[0,0,0,0,0,1,1,0,0,0,0,0,0,0,0],"id":23,"left_children":[1,3,5,7,9,11,13,-1,-1,-1,-1,-1,-1,-1,-1],"loss_changes":[1.9124233E1,6.3064833E0,2.4089365E0,4.447108E0,1.97719E0,1.9280806E0,1.8608193E0,0E0,0E0,0E0,0E0,0E0,0E0,0E0,0E0],"parents":[2147483647,0,0,1,1,2,2,3,3,4,4,5,5,6,6],"right_children":[2,4,6,8,10,12,14,-1,-1,-1,-1,-1,-1,-1,-1],"split_conditions":[6.815572E0,1.7E1,4.5416665E0,1.2E1,1.456109E1,2.782334E1,5.2352834E0,4.3651485E-3,-1.5171547E-3,-2.8684127E-4,-1.0006304E-2,1.041473E-2,6.02197E-4,4.8258407E-3,-2.4278562E-3],"split_indices":[69,29,18,72,48,21,62,0,0,0,0,0,0,0,0],"split_type":[0,0,0,0,0,0,0,0,0,0,0,0,0,0,0],"sum_hessian":[1.4036335E3,1.1014773E3,3.0215622E2,1.0174297E3,8.404766E1,9.483286E1,2.0732336E2,8.6767006E1,9.3066266E2,1.692602E1,6.712164E1,7.920316E1,1.5629698E1,1.8330838E2,2.401497E1],"tree_param":{"num_deleted":"0","num_feature":"92","num_nodes":"15","size_leaf_vector":"1"}},{"base_weights":[-9.081242E-3,2.3415436E-1,-6.26117E-2,3.888871E-1,1.6052504E-1,-2.1682492E-2,-2.3705874E-1,-2.560793E-3,1.1362221E-2,-2.6571276E-4,6.326083E-3,3.578605E-4,-4.2896327E-3,9.075268E-3,-6.395433E-3],"categories":[],"categories_nodes":[],"categories_segments":[],"categories_sizes":[],"default_left":[0,0,0,1,0,1,0,0,0,0,0,0,0,0,0],"id":24,"left_children":[1,3,5,7,9,11,13,-1,-1,-1,-1,-1,-1,-1,-1],"loss_changes":[1.7653013E1,2.66778E0,7.912301E0,2.5854979E0,2.683762E0,4.8889713E0,2.4555912E0,0E0,0E0,0E0,0E0,0E0,0E0,0E0,0E0],"parents":[2147483647,0,0,1,1,2,2,3,3,4,4,5,5,6,6],"right_children":[2,4,6,8,10,12,14,-1,-1,-1,-1,-1,-1,-1,-1],"split_conditions":[6.5740237E0,4E0,1.5452175E1,8.4164566E1,1.021888E2,1.5E1,8E0,-2.560793E-3,1.1362221E-2,-2.6571276E-4,6.326083E-3,3.578605E-4,-4.2896327E-3,9.075268E-3,-6.395433E-3],"split_indices":[70,49,71,39,46,49,49,0,0,0,0,0,0,0,0],"split_type":[0,0,0,0,0,0,0,0,0,0,0,0,0,0,0],"sum_hessian":[1.3549763E3,2.4346411E2,1.1115122E3,7.668016E1,1.6678395E2,9.0166E2,2.0985223E2,8.786752E0,6.789341E1,5.8453175E1,1.0833077E2,7.2725745E2,1.7440254E2,5.6433682E0,2.0420886E2],"tree_param":{"num_deleted":"0","num_feature":"92","num_nodes":"15","size_leaf_vector":"1"}},{"base_weights":[-4.774858E-3,1.7060222E-1,-8.4239535E-2,3.9228582E-1,1.3143286E-1,3.1362453E-1,-1.0333449E-1,1.3595183E-2,4.097632E-3,1.2250354E-2,2.575857E-3,-4.0941546E-3,1.0680854E-2,-1.4650631E-2,-2.319766E-3],"categories":[],"categories_nodes":[],"categories_segments":[],"categories_sizes":[],"default_left":[0,0,0,0,0,0,0,0,0,0,0,0,0,0,0],"id":25,"left_children":[1,3,5,7,9,11,13,-1,-1,-1,-1,-1,-1,-1,-1],"loss_changes":[1.9154057E1,3.6157417E0,7.2030015E0,2.0353088E0,3.6166315E0,2.447938E0,4.4798794E0,0E0,0E0,0E0,0E0,0E0,0E0,0E0,0E0],"parents":[2147483647,0,0,1,1,2,2,3,3,4,4,5,5,6,6],"right_children":[2,4,6,8,10,12,14,-1,-1,-1,-1,-1,-1,-1,-1],"split_conditions":[9.333333E0,3E0,1E1,8.676575E-1,5E0,-2.2196572E0,-7E0,1.3595183E-2,4.097632E-3,1.2250354E-2,2.575857E-3,-4.0941546E-3,1.0680854E-2,-1.4650631E-2,-2.319766E-3],"split_indices":[29,49,72,47,72,21,77,0,0,0,0,0,0,0,0],"split_type":[0,0,0,0,0,0,0,0,0,0,0,0,0,0,0],"sum_hessian":[1.3729906E3,4.273755E2,9.456151E2,6.24371E1,3.649384E2,4.235896E1,9.0325616E2,3.6440952E1,2.599615E1,2.5329792E1,3.3960858E2,7.888709E0,3.447025E1,1.7939367E1,8.8531683E2],"tree_param":{"num_deleted":"0","num_feature":"92","num_nodes":"15","size_leaf_vector":"1"}},{"base_weights":[1.0843855E-2,1.8391149E-1,-6.278029E-2,7.812664E-2,2.5501865E-1,-4.5762435E-2,-4.4178626E-1,-1.0199929E-2,3.0160875E-3,3.5864543E-3,9.040674E-3,5.9443577E-3,-1.5659779E-3,-1.1960155E-2,-1.6388635E-4],"categories":[],"categories_nodes":[],"categories_segments":[],"categories_sizes":[],"default_left":[0,0,0,0,0,0,1,0,0,0,0,0,0,0,0],"id":26,"left_children":[1,3,5,7,9,11,13,-1,-1,-1,-1,-1,-1,-1,-1],"loss_changes":[1.7083738E1,2.9574375E0,5.9916086E0,3.3873405E0,2.7323523E0,4.3070564E0,5.8605385E-1,0E0,0E0,0E0,0E0,0E0,0E0,0E0,0E0],"parents":[2147483647,0,0,1,1,2,2,3,3,4,4,5,5,6,6],"right_children":[2,4,6,8,10,12,14,-1,-1,-1,-1,-1,-1,-1,-1],"split_conditions":[9.2E0,1.0471698E1,1.8E1,8.0777085E-1,4.2E1,1E1,5.2E1,-1.0199929E-2,3.0160875E-3,3.5864543E-3,9.040674E-3,5.9443577E-3,-1.5659779E-3,-1.1960155E-2,-1.6388635E-4],"split_indices":[18,32,17,47,75,72,41,0,0,0,0,0,0,0,0],"split_type":[0,0,0,0,0,0,0,0,0,0,0,0,0,0,0],"sum_hessian":[1.33789E3,3.992461E2,9.38644E2,1.6189818E2,2.3734792E2,8.9963385E2,3.901013E1,1.2140425E1,1.4975775E2,1.1758475E2,1.1976316E2,4.9471615E1,8.5016223E2,3.5679153E1,3.3309758E0],"tree_param":{"num_deleted":"0","num_feature":"92","num_nodes":"15","size_leaf_vector":"1"}},{"base_weights":[7.649877E-4,2.0064326E-1,-6.2921554E-2,4.4022307E-1,1.5841137E-1,-3.9563242E-2,-2.5416133E-1,1.219464E-2,-0E0,7.900299E-3,2.5957392E-3,-1.977601E-5,-4.597078E-3,-1.0392263E-2,-1.1303852E-3],"categories":[],"categories_nodes":[],"categories_segments":[],"categories_sizes":[],"default_left":[0,0,0,1,0,1,1,0,0,0,0,0,0,0,0],"id":27,"left_children":[1,3,5,7,9,11,13,-1,-1,-1,-1,-1,-1,-1,-1],"loss_changes":[1.7362633E1,3.206256E0,4.5758715E0,1.0021935E0,2.3527856E0,5.1426616E0,3.7087665E0,0E0,0E0,0E0,0E0,0E0,0E0,0E0,0E0],"parents":[2147483647,0,0,1,1,2,2,3,3,4,4,5,5,6,6],"right_children":[2,4,6,8,10,12,14,-1,-1,-1,-1,-1,-1,-1,-1],"split_conditions":[8.2E0,3.0018747E0,5.579832E0,3.18E1,4E0,1.5E1,1.4435579E-1,1.219464E-2,-0E0,7.900299E-3,2.5957392E-3,-1.977601E-5,-4.597078E-3,-1.0392263E-2,-1.1303852E-3],"split_indices":[28,71,19,10,49,49,20,0,0,0,0,0,0,0,0],"split_type":[0,0,0,0,0,0,0,0,0,0,0,0,0,0,0],"sum_hessian":[1.3608885E3,3.286984E2,1.0321902E3,4.7491146E1,2.8120724E2,9.213811E2,1.1080908E2,4.2707775E1,4.78337E0,7.0634384E1,2.1057288E2,7.2760504E2,1.9377608E2,6.1667744E1,4.914134E1],"tree_param":{"num_deleted":"0","num_feature":"92","num_nodes":"15","size_leaf_vector":"1"}},{"base_weights":[3.6357453E-3,-7.6020665E-2,1.6817918E-1,-6.1466996E-2,-4.404047E-1,2.1767505E-1,-1.00946255E-1,-4.4465805E-3,-2.8800068E-4,-1.3188553E-2,2.8762089E-3,6.0627195E-3,-7.7590863E-3,4.3994994E-3,-4.81143E-3],"categories":[],"categories_nodes":[],"categories_segments":[],"categories_sizes":[],"default_left":[0,1,1,0,0,0,0,0,0,0,0,0,0,0,0],"id":28,"left_children":[1,3,5,7,9,11,13,-1,-1,-1,-1,-1,-1,-1,-1],"loss_changes":[1.7489992E1,4.686435E0,5.834076E0,5.0090113E0,1.7511334E0,4.89983E0,1.7591008E0,0E0,0E0,0E0,0E0,0E0,0E0,0E0,0E0],"parents":[2147483647,0,0,1,1,2,2,3,3,4,4,5,5,6,6],"right_children":[2,4,6,8,10,12,14,-1,-1,-1,-1,-1,-1,-1,-1],"split_conditions":[8E0,2E1,5E0,1.0440594E1,7.82986E0,1.6142857E1,-4.7652173E0,-4.4465805E-3,-2.8800068E-4,-1.3188553E-2,2.8762089E-3,6.0627195E-3,-7.7590863E-3,4.3994994E-3,-4.81143E-3],"split_indices":[51,49,72,32,63,14,31,0,0,0,0,0,0,0,0],"split_type":[0,0,0,0,0,0,0,0,0,0,0,0,0,0,0],"sum_hessian":[1.3317285E3,8.9728033E2,4.3444824E2,8.642066E2,3.3073685E1,3.674347E2,6.701354E1,2.5812048E2,6.060862E2,2.878784E1,4.2858467E0,3.516277E2,1.5806995E1,1.6143875E1,5.0869667E1],"tree_param":{"num_deleted":"0","num_feature":"92","num_nodes":"15","size_leaf_vector":"1"}},{"base_weights":[-8.424413E-3,2.2207233E-1,-5.4597303E-2,1.3284202E-1,3.4270173E-1,-2.5443377E-2,-2.1865211E-1,1.2278148E-3,7.4306442E-3,3.808843E-3,1.156925E-2,-4.391066E-3,1.6660601E-4,9.714159E-3,-6.3471193E-3],"categories":[],"categories_nodes":[],"categories_segments":[],"categories_sizes":[],"default_left":[0,0,0,1,0,0,0,0,0,0,0,0,0,0,0],"id":29,"left_children":[1,3,5,7,9,11,13,-1,-1,-1,-1,-1,-1,-1,-1],"loss_changes":[1.4486185E1,2.351017E0,5.4009743E0,1.776247E0,2.0491695E0,4.6757507E0,3.7369347E0,0E0,0E0,0E0,0E0,0E0,0E0,0E0,0E0],"parents":[2147483647,0,0,1,1,2,2,3,3,4,4,5,5,6,6],"right_children":[2,4,6,8,10,12,14,-1,-1,-1,-1,-1,-1,-1,-1],"split_conditions":[6.3816814E0,1.2297069E1,1.5965239E1,1.2242761E1,4.9703126E0,-2E0,8.0902827E-1,1.2278148E-3,7.4306442E-3,3.808843E-3,1.156925E-2,-4.391066E-3,1.6660601E-4,9.714159E-3,-6.3471193E-3],"split_indices":[70,69,71,21,63,50,47,0,0,0,0,0,0,0,0],"split_type":[0,0,0,0,0,0,0,0,0,0,0,0,0,0,0],"sum_hessian":[1.3605725E3,2.2606624E2,1.1345062E3,1.3162938E2,9.443685E1,9.648151E2,1.6969115E2,8.847264E1,4.3156742E1,3.7727695E1,5.6709152E1,1.6968303E2,7.951321E2,8.600394E0,1.6109074E2],"tree_param":{"num_deleted":"0","num_feature":"92","num_nodes":"15","size_leaf_vector":"1"}},{"base_weights":[-3.2746107E-3,1.1468757E-1,-1.1089566E-1,4.0098804E-1,7.627479E-2,6.6677686E-3,-1.6033004E-1,1.0891433E-2,-1.6889224E-3,-7.4659515E-4,3.7308128E-3,2.2796802E-3,-5.791482E-3,-9.02794E-3,-3.0429966E-3],"categories":[],"categories_nodes":[],"categories_segments":[],"categories_sizes":[],"default_left":[0,0,0,1,0,0,0,0,0,0,0,0,0,0,0],"id":30,"left_children":[1,3,5,7,9,11,13,-1,-1,-1,-1,-1,-1,-1,-1],"loss_changes":[1.694238E1,6.9191294E0,4.074767E0,1.2801046E0,4.3725233E0,4.1781983E0,3.7237797E0,0E0,0E0,0E0,0E0,0E0,0E0,0E0,0E0],"parents":[2147483647,0,0,1,1,2,2,3,3,4,4,5,5,6,6],"right_children":[2,4,6,8,10,12,14,-1,-1,-1,-1,-1,-1,-1,-1],"split_conditions":[8.6565655E-1,3.75E0,-2E0,1.63445E0,1.0476191E1,1.6142857E1,1.2289936E1,1.0891433E-2,-1.6889224E-3,-7.4659515E-4,3.7308128E-3,2.2796802E-3,-5.791482E-3,-9.02794E-3,-3.0429966E-3],"split_indices":[19,14,77,22,32,14,70,0,0,0,0,0,0,0,0],"split_type":[0,0,0,0,0,0,0,0,0,0,0,0,0,0,0],"sum_hessian":[1.3325768E3,6.3526996E2,6.9730676E2,7.37263E1,5.6154364E2,2.0607272E2,4.9123407E2,6.891096E1,4.8153424E0,2.2843594E2,3.331077E2,1.5288953E2,5.318321E1,7.746159E1,4.1377246E2],"tree_param":{"num_deleted":"0","num_feature":"92","num_nodes":"15","size_leaf_vector":"1"}},{"base_weights":[-0E0,-7.7618524E-2,1.3892435E-1,-5.2884817E-2,-3.198703E-1,1.668515E-1,-4.7158253E-1,-3.4557034E-3,4.3546324E-4,-1.206584E-3,-9.567374E-3,4.53767E-3,-1.3382505E-2,-1.4645183E-2,-0E0],"categories":[],"categories_nodes":[],"categories_segments":[],"categories_sizes":[],"default_left":[0,0,1,0,0,0,0,0,0,0,0,0,0,0,0],"id":31,"left_children":[1,3,5,7,9,11,13,-1,-1,-1,-1,-1,-1,-1,-1],"loss_changes":[1.4769218E1,5.208346E0,8.420985E0,4.80542E0,1.3170528E0,4.9032726E0,1.1416411E0,0E0,0E0,0E0,0E0,0E0,0E0,0E0,0E0],"parents":[2147483647,0,0,1,1,2,2,3,3,4,4,5,5,6,6],"right_children":[2,4,6,8,10,12,14,-1,-1,-1,-1,-1,-1,-1,-1],"split_conditions":[3.012432E0,1.6846153E1,1.4E1,1.0475096E1,1.1E1,1.4722907E1,2.2800909E1,-3.4557034E-3,4.3546324E-4,-1.206584E-3,-9.567374E-3,4.53767E-3,-1.3382505E-2,-1.4645183E-2,-0E0],"split_indices":[69,29,72,32,15,71,86,0,0,0,0,0,0,0,0],"split_type":[0,0,0,0,0,0,0,0,0,0,0,0,0,0,0],"sum_hessian":[1.367372E3,8.77292E2,4.900799E2,7.974991E2,7.97929E1,4.6949377E2,2.058612E1,3.604249E2,4.3707422E2,1.562068E1,6.417222E1,4.607607E2,8.733067E0,1.6315546E1,4.270574E0],"tree_param":{"num_deleted":"0","num_feature":"92","num_nodes":"15","size_leaf_vector":"1"}},{"base_weights":[4.225445E-3,1.6728172E-1,-6.6755354E-2,3.8063827E-1,1.1842797E-1,-1.4287543E-1,1.012973E-3,1.1880855E-2,4.130035E-3,8.833498E-4,5.772554E-3,-4.290134E-3,3.0953584E-3,-1.1905027E-2,6.150631E-4],"categories":[],"categories_nodes":[],"categories_segments":[],"categories_sizes":[],"default_left":[0,0,0,1,1,0,0,0,0,0,0,0,0,0,0],"id":32,"left_children":[1,3,5,7,9,11,13,-1,-1,-1,-1,-1,-1,-1,-1],"loss_changes":[1.5546347E1,4.1529408E0,4.8367968E0,1.3879089E0,3.081564E0,3.4049377E0,5.5372725E0,0E0,0E0,0E0,0E0,0E0,0E0,0E0,0E0],"parents":[2147483647,0,0,1,1,2,2,3,3,4,4,5,5,6,6],"right_children":[2,4,6,8,10,12,14,-1,-1,-1,-1,-1,-1,-1,-1],"split_conditions":[9.272727E0,4.090909E0,1.0477612E1,1.4975125E1,-1E0,3.3333334E-1,-4.795457E1,1.1880855E-2,4.130035E-3,8.833498E-4,5.772554E-3,-4.290134E-3,3.0953584E-3,-1.1905027E-2,6.150631E-4],"split_indices":[29,18,32,48,50,57,21,0,0,0,0,0,0,0,0],"split_type":[0,0,0,0,0,0,0,0,0,0,0,0,0,0,0],"sum_hessian":[1.3403953E3,4.0654254E2,9.3385266E2,7.409832E1,3.324442E2,4.3999744E2,4.9385526E2,5.032924E1,2.376908E1,1.9246077E2,1.3998343E2,3.9786752E2,4.2129925E1,2.2158812E1,4.7169644E2],"tree_param":{"num_deleted":"0","num_feature":"92","num_nodes":"15","size_leaf_vector":"1"}},{"base_weights":[-1.2418457E-2,2.3745498E-1,-7.61237E-2,2.5421324E-1,-2.264456E-1,-1.6333202E-1,-1.6478328E-2,8.269235E-3,4.5728236E-3,6.9284264E-4,-1.0653366E-2,-4.3421267E-3,1.1782077E-2,6.903626E-4,-5.956706E-3],"categories":[],"categories_nodes":[],"categories_segments":[],"categories_sizes":[],"default_left":[0,0,0,1,0,1,0,0,0,0,0,0,0,0,0],"id":33,"left_children":[1,3,5,7,9,11,13,-1,-1,-1,-1,-1,-1,-1,-1],"loss_changes":[2.1549026E1,2.1975956E0,5.595423E0,1.3401451E0,5.544028E-1,2.9280663E0,6.315401E0,0E0,0E0,0E0,0E0,0E0,0E0,0E0,0E0],"parents":[2147483647,0,0,1,1,2,2,3,3,4,4,5,5,6,6],"right_children":[2,4,6,8,10,12,14,-1,-1,-1,-1,-1,-1,-1,-1],"split_conditions":[6.5E0,1.1043478E1,1.0466216E1,4E0,5.4E0,8.333333E0,1.5610141E1,8.269235E-3,4.5728236E-3,6.9284264E-4,-1.0653366E-2,-4.3421267E-3,1.1782077E-2,6.903626E-4,-5.956706E-3],"split_indices":[30,18,32,49,24,50,66,0,0,0,0,0,0,0,0],"split_type":[0,0,0,0,0,0,0,0,0,0,0,0,0,0,0],"sum_hessian":[1.3526093E3,2.7391705E2,1.0786921E3,2.6501117E2,8.905871E0,4.367293E2,6.419629E2,1.25364204E2,1.3964697E2,4.0770893E0,4.8287826E0,4.305886E2,6.14069E0,5.3585675E2,1.0610611E2],"tree_param":{"num_deleted":"0","num_feature":"92","num_nodes":"15","size_leaf_vector":"1"}},{"base_weights":[3.1232717E-3,1.6403641E-1,-6.437216E-2,1.9324654E-1,-1.880596E-1,-4.133323E-2,-3.041544E-1,9.3725175E-3,3.982575E-3,-8.754618E-3,7.191269E-3,-7.667669E-4,-1.1421172E-2,-1.5557401E-2,-5.9192623E-3],"categories":[],"categories_nodes":[],"categories_segments":[],"categories_sizes":[],"default_left":[0,1,0,0,0,1,0,0,0,0,0,0,0,0,0],"id":34,"left_children":[1,3,5,7,9,11,13,-1,-1,-1,-1,-1,-1,-1,-1],"loss_changes":[1.4697786E1,4.151366E0,5.2138443E0,2.1692991E0,2.4894538E0,3.793416E0,1.5448608E0,0E0,0E0,0E0,0E0,0E0,0E0,0E0,0E0],"parents":[2147483647,0,0,1,1,2,2,3,3,4,4,5,5,6,6],"right_children":[2,4,6,8,10,12,14,-1,-1,-1,-1,-1,-1,-1,-1],"split_conditions":[9.272727E0,9E0,6.2937126E0,3E0,9.991121E0,1.9E1,6E0,9.3725175E-3,3.982575E-3,-8.754618E-3,7.191269E-3,-7.667669E-4,-1.1421172E-2,-1.5557401E-2,-5.9192623E-3],"split_indices":[29,72,19,49,71,72,91,0,0,0,0,0,0,0,0],"split_type":[0,0,0,0,0,0,0,0,0,0,0,0,0,0,0],"sum_hessian":[1.350385E3,3.9905807E2,9.5132697E2,3.691669E2,2.9891176E1,8.6938367E2,8.194333E1,5.6076077E1,3.1309082E2,2.2647013E1,7.2441645E0,8.4891406E2,2.0469622E1,1.2623676E1,6.931965E1],"tree_param":{"num_deleted":"0","num_feature":"92","num_nodes":"15","size_leaf_vector":"1"}},{"base_weights":[-2.511562E-3,-6.254602E-2,1.9520518E-1,3.7258282E-2,-1.13182865E-1,3.5310188E-1,1.4631777E-1,-6.7239883E-3,1.953539E-3,-2.1756121E-3,-1.1273863E-2,9.630863E-3,-3.5327156E-3,1.8509706E-4,5.6411037E-3],"categories":[],"categories_nodes":[],"categories_segments":[],"categories_sizes":[],"default_left":[0,0,0,0,1,0,0,0,0,0,0,0,0,0,0],"id":35,"left_children":[1,3,5,7,9,11,13,-1,-1,-1,-1,-1,-1,-1,-1],"loss_changes":[1.5751553E1,5.162381E0,2.2833157E0,4.297562E0,5.888895E0,1.2203321E0,2.5988708E0,0E0,0E0,0E0,0E0,0E0,0E0,0E0,0E0],"parents":[2147483647,0,0,1,1,2,2,3,3,4,4,5,5,6,6],"right_children":[2,4,6,8,10,12,14,-1,-1,-1,-1,-1,-1,-1,-1],"split_conditions":[6.2888284E0,-1.3333334E0,-6.591856E0,-6.6666665E0,1.9E1,8.1E1,9E0,-6.7239883E-3,1.953539E-3,-2.1756121E-3,-1.1273863E-2,9.630863E-3,-3.5327156E-3,1.8509706E-4,5.6411037E-3],"split_indices":[69,77,19,77,49,52,51,0,0,0,0,0,0,0,0],"split_type":[0,0,0,0,0,0,0,0,0,0,0,0,0,0,0],"sum_hessian":[1.3261146E3,1.0181533E3,3.0796133E2,3.4212347E2,6.7602985E2,7.085274E1,2.3710858E2,3.9351795E1,3.0277167E2,6.288805E2,4.7149323E1,6.692617E1,3.9265683E0,8.704029E1,1.500683E2],"tree_param":{"num_deleted":"0","num_feature":"92","num_nodes":"15","size_leaf_vector":"1"}},{"base_weights":[3.541787E-3,-6.607097E-2,1.4817926E-1,-5.205115E-2,-4.8145643E-1,1.6538417E-1,-4.2411053E-1,-1.0458201E-2,-9.858022E-4,2.264579E-3,-1.5930323E-2,4.638513E-3,-6.640456E-3,-1.6308287E-2,3.7652408E-3],"categories":[],"categories_nodes":[],"categories_segments":[],"categories_sizes":[],"default_left":[0,1,0,0,0,1,0,0,0,0,0,0,0,0,0],"id":36,"left_children":[1,3,5,7,9,11,13,-1,-1,-1,-1,-1,-1,-1,-1],"loss_changes":[1.35735655E1,5.215888E0,4.3589897E0,4.008754E0,2.7254472E0,3.7448301E0,1.8404915E0,0E0,0E0,0E0,0E0,0E0,0E0,0E0,0E0],"parents":[2147483647,0,0,1,1,2,2,3,3,4,4,5,5,6,6],"right_children":[2,4,6,8,10,12,14,-1,-1,-1,-1,-1,-1,-1,-1],"split_conditions":[3.6537015E0,1.9E1,1.4E1,7.3333335E0,-8.156263E-1,1.1E1,5.882878E0,-1.0458201E-2,-9.858022E-4,2.264579E-3,-1.5930323E-2,4.638513E-3,-6.640456E-3,-1.6308287E-2,3.7652408E-3],"split_indices":[69,72,76,38,22,72,69,0,0,0,0,0,0,0,0],"split_type":[0,0,0,0,0,0,0,0,0,0,0,0,0,0,0],"sum_hessian":[1.345319E3,9.0810693E2,4.3721207E2,8.7977924E2,2.8327673E1,4.2531155E2,1.1900512E1,2.7966208E1,8.5181305E2,6.014586E0,2.2313086E1,4.070757E2,1.8235857E1,8.545898E0,3.3546133E0],"tree_param":{"num_deleted":"0","num_feature":"92","num_nodes":"15","size_leaf_vector":"1"}},{"base_weights":[9.8297335E-3,1.3212636E-1,-6.9105245E-2,3.4696892E-1,9.974691E-2,-4.2256057E-2,-2.924451E-1,1.0432995E-2,3.961118E-3,-4.5380564E-3,3.2382978E-3,-2.8463951E-3,1.3906691E-3,-8.993288E-3,1.6504889E-3],"categories":[],"categories_nodes":[],"categories_segments":[],"categories_sizes":[],"default_left":[0,0,0,1,0,0,1,0,0,0,0,0,0,0,0],"id":37,"left_children":[1,3,5,7,9,11,13,-1,-1,-1,-1,-1,-1,-1,-1],"loss_changes":[1.2990235E1,3.5941477E0,4.853284E0,7.8286266E-1,3.8779135E0,5.1345024E0,2.1541438E0,0E0,0E0,0E0,0E0,0E0,0E0,0E0,0E0],"parents":[2147483647,0,0,1,1,2,2,3,3,4,4,5,5,6,6],"right_children":[2,4,6,8,10,12,14,-1,-1,-1,-1,-1,-1,-1,-1],"split_conditions":[2.1062271E-1,3.75E0,1.6583334E1,4.147185E1,-6E0,1.5E1,3E0,1.0432995E-2,3.961118E-3,-4.5380564E-3,3.2382978E-3,-2.8463951E-3,1.3906691E-3,-8.993288E-3,1.6504889E-3],"split_indices":[31,14,18,4,50,26,50,0,0,0,0,0,0,0,0],"split_type":[0,0,0,0,0,0,0,0,0,0,0,0,0,0,0],"sum_hessian":[1.3430542E3,5.270582E2,8.15996E2,6.735348E1,4.597047E2,7.298882E2,8.6107834E1,4.7779667E1,1.957381E1,4.320973E1,4.16495E2,4.220348E2,3.0785336E2,7.273112E1,1.3376722E1],"tree_param":{"num_deleted":"0","num_feature":"92","num_nodes":"15","size_leaf_vector":"1"}},{"base_weights":[-1.7426392E-3,1.19205855E-1,-7.678331E-2,1.350091E-1,-3.9109725E-1,-5.133546E-2,-2.897629E-1,9.946672E-4,5.1510576E-3,6.7794337E-3,-1.5554245E-2,-2.0421017E-3,3.2281564E-3,-7.875449E-5,-9.593032E-3],"categories":[],"categories_nodes":[],"categories_segments":[],"categories_sizes":[],"default_left":[0,1,0,0,0,0,0,0,0,0,0,0,0,0,0],"id":38,"left_children":[1,3,5,7,9,11,13,-1,-1,-1,-1,-1,-1,-1,-1],"loss_changes":[1.2030107E1,4.1172824E0,4.3885937E0,3.3009987E0,2.5454042E0,4.0203114E0,2.296341E0,0E0,0E0,0E0,0E0,0E0,0E0,0E0,0E0],"parents":[2147483647,0,0,1,1,2,2,3,3,4,4,5,5,6,6],"right_children":[2,4,6,8,10,12,14,-1,-1,-1,-1,-1,-1,-1,-1],"split_conditions":[1.06E1,1.6E1,6.115942E0,1.047304E1,4E0,1.9E1,1.6E1,9.946672E-4,5.1510576E-3,6.7794337E-3,-1.5554245E-2,-2.0421017E-3,3.2281564E-3,-7.875449E-5,-9.593032E-3],"split_indices":[17,72,19,32,15,15,49,0,0,0,0,0,0,0,0],"split_type":[0,0,0,0,0,0,0,0,0,0,0,0,0,0,0],"sum_hessian":[1.3239364E3,5.0617548E2,8.177609E2,4.9187433E2,1.4301141E1,7.320076E2,8.575328E1,2.114228E2,2.804515E2,3.5422919E0,1.0758849E1,6.275695E2,1.0443811E2,2.168937E1,6.406391E1],"tree_param":{"num_deleted":"0","num_feature":"92","num_nodes":"15","size_leaf_vector":"1"}},{"base_weights":[-4.4731367E-3,-5.784532E-2,1.9096674E-1,-6.908451E-2,4.2887223E-1,3.7583E-1,1.4456512E-1,-1.2093785E-2,-1.435689E-3,-4.103665E-3,1.4277252E-2,1.0252394E-2,-1.8876403E-3,1.2679122E-3,5.3576496E-3],"categories":[],"categories_nodes":[],"categories_segments":[],"categories_sizes":[],"default_left":[0,1,0,0,1,1,0,0,0,0,0,0,0,0,0],"id":39,"left_children":[1,3,5,7,9,11,13,-1,-1,-1,-1,-1,-1,-1,-1],"loss_changes":[1.3868194E1,5.7137346E0,2.3389273E0,4.863612E0,2.1196747E0,9.326372E-1,1.4675312E0,0E0,0E0,0E0,0E0,0E0,0E0,0E0,0E0],"parents":[2147483647,0,0,1,1,2,2,3,3,4,4,5,5,6,6],"right_children":[2,4,6,8,10,12,14,-1,-1,-1,-1,-1,-1,-1,-1],"split_conditions":[6.815572E0,8.666667E0,3.32901E0,6.5E0,3.651282E1,3.1853E1,1.0471698E1,-1.2093785E-2,-1.435689E-3,-4.103665E-3,1.4277252E-2,1.0252394E-2,-1.8876403E-3,1.2679122E-3,5.3576496E-3],"split_indices":[69,50,71,38,87,10,32,0,0,0,0,0,0,0,0],"split_type":[0,0,0,0,0,0,0,0,0,0,0,0,0,0,0],"sum_hessian":[1.3287277E3,1.0446599E3,2.8406787E2,1.0221207E3,2.25391E1,5.513927E1,2.2892859E2,2.660587E1,9.955149E2,4.193934E0,1.8345167E1,5.1539307E1,3.5999658E0,9.8943596E1,1.2998499E2],"tree_param":{"num_deleted":"0","num_feature":"92","num_nodes":"15","size_leaf_vector":"1"}},{"base_weights":[-2.736495E-3,-6.753433E-2,1.3353452E-1,-5.0626438E-2,-2.713332E-1,2.919843E-1,7.5042695E-2,-5.699886E-3,-6.8662985E-4,5.127744E-3,-8.348831E-3,1.2532629E-2,5.248265E-3,5.3917145E-4,6.8772743E-3],"categories":[],"categories_nodes":[],"categories_segments":[],"categories_sizes":[],"default_left":[0,0,0,0,0,1,1,0,0,0,0,0,0,0,0],"id":40,"left_children":[1,3,5,7,9,11,13,-1,-1,-1,-1,-1,-1,-1,-1],"loss_changes":[1.1722006E1,3.0576162E0,3.9040456E0,3.391697E0,2.1195898E0,1.7897692E0,3.32446E0,0E0,0E0,0E0,0E0,0E0,0E0,0E0,0E0],"parents":[2147483647,0,0,1,1,2,2,3,3,4,4,5,5,6,6],"right_children":[2,4,6,8,10,12,14,-1,-1,-1,-1,-1,-1,-1,-1],"split_conditions":[8E0,1.6990957E1,5.5365853E0,1.0393163E1,9.32425E0,2.4564E0,-1.9233334E-1,-5.699886E-3,-6.8662985E-4,5.127744E-3,-8.348831E-3,1.2532629E-2,5.248265E-3,5.3917145E-4,6.8772743E-3],"split_indices":[51,66,18,32,40,62,81,0,0,0,0,0,0,0,0],"split_type":[0,0,0,0,0,0,0,0,0,0,0,0,0,0,0],"sum_hessian":[1.3262367E3,8.9967377E2,4.26563E2,8.323575E2,6.731628E1,1.1347272E2,3.1309027E2,9.461716E1,7.377403E2,7.369936E0,5.9946342E1,3.017286E1,8.329986E1,2.4831873E2,6.477155E1],"tree_param":{"num_deleted":"0","num_feature":"92","num_nodes":"15","size_leaf_vector":"1"}},{"base_weights":[9.763222E-3,1.7607154E-1,-4.9057737E-2,2.0660639E-1,-2.2400126E-1,-3.3088125E-2,-2.9577813E-1,5.6503597E-3,-5.464765E-3,-2.7828198E-3,-1.6347608E-2,-2.596268E-3,1.2200089E-3,1.7082135E-3,-9.655265E-3],"categories":[],"categories_nodes":[],"categories_segments":[],"categories_sizes":[],"default_left":[0,1,1,0,0,0,0,0,0,0,0,0,0,0,0],"id":41,"left_children":[1,3,5,7,9,11,13,-1,-1,-1,-1,-1,-1,-1,-1],"loss_changes":[1.3036431E1,4.299178E0,3.8310783E0,2.7266302E0,1.0591264E0,5.3701253E0,2.0095458E0,0E0,0E0,0E0,0E0,0E0,0E0,0E0,0E0],"parents":[2147483647,0,0,1,1,2,2,3,3,4,4,5,5,6,6],"right_children":[2,4,6,8,10,12,14,-1,-1,-1,-1,-1,-1,-1,-1],"split_conditions":[8.798997E0,7E0,1.9E1,1.2857142E1,1.39829035E1,1.0485436E1,1.0841311E1,5.6503597E-3,-5.464765E-3,-2.7828198E-3,-1.6347608E-2,-2.596268E-3,1.2200089E-3,1.7082135E-3,-9.655265E-3],"split_indices":[71,72,49,14,67,32,71,0,0,0,0,0,0,0,0],"split_type":[0,0,0,0,0,0,0,0,0,0,0,0,0,0,0],"sum_hessian":[1.3294581E3,3.4727936E2,9.821787E2,3.2333493E2,2.3944435E1,9.2391534E2,5.8263363E1,3.0989355E2,1.3441368E1,2.0153286E1,3.7911496E0,4.9613846E2,4.2777692E2,1.1420366E1,4.6843E1],"tree_param":{"num_deleted":"0","num_feature":"92","num_nodes":"15","size_leaf_vector":"1"}},{"base_weights":[-6.396798E-3,1.479524E-1,-8.483148E-2,3.4557444E-1,1.054325E-1,2.3237893E-2,-1.5472218E-1,9.630988E-3,-2.4469527E-3,3.793582E-3,-1.0090161E-3,1.3101495E-2,-2.0247997E-5,-4.329963E-3,8.416596E-3],"categories":[],"categories_nodes":[],"categories_segments":[],"categories_sizes":[],"default_left":[0,0,0,1,0,0,1,0,0,0,0,0,0,0,0],"id":42,"left_children":[1,3,5,7,9,11,13,-1,-1,-1,-1,-1,-1,-1,-1],"loss_changes":[1.6096651E1,3.6809444E0,6.681017E0,1.44592E0,2.5176926E0,4.229818E0,4.9128733E0,0E0,0E0,0E0,0E0,0E0,0E0,0E0,0E0],"parents":[2147483647,0,0,1,1,2,2,3,3,4,4,5,5,6,6],"right_children":[2,4,6,8,10,12,14,-1,-1,-1,-1,-1,-1,-1,-1],"split_conditions":[1E1,-6.5521607E0,-1E0,2.25E1,4E0,5E0,1.03474E2,9.630988E-3,-2.4469527E-3,3.793582E-3,-1.0090161E-3,1.3101495E-2,-2.0247997E-5,-4.329963E-3,8.416596E-3],"split_indices":[17,19,78,38,77,49,9,0,0,0,0,0,0,0,0],"split_type":[0,0,0,0,0,0,0,0,0,0,0,0,0,0,0],"sum_hessian":[1.3280908E3,4.467615E2,8.8132935E2,7.742584E1,3.6933566E2,3.4582687E2,5.3550244E2,7.1396484E1,6.0293574E0,2.8078894E2,8.854671E1,1.50825405E1,3.3074435E2,5.169172E2,1.8585274E1],"tree_param":{"num_deleted":"0","num_feature":"92","num_nodes":"15","size_leaf_vector":"1"}},{"base_weights":[1.0626989E-3,-6.334484E-2,1.3868895E-1,-4.0891004E-1,-5.084543E-2,1.5490115E-1,-5.2429265E-1,5.5956026E-3,-1.3007796E-2,6.010919E-4,-2.7733587E-3,4.1322517E-3,-1.0998352E-2,-1.6903361E-2,-6.3203177E-3],"categories":[],"categories_nodes":[],"categories_segments":[],"categories_sizes":[],"default_left":[0,0,0,0,0,0,0,0,0,0,0,0,0,0,0],"id":43,"left_children":[1,3,5,7,9,11,13,-1,-1,-1,-1,-1,-1,-1,-1],"loss_changes":[1.1776716E1,3.8378007E0,4.5990725E0,2.3407211E0,3.9436123E0,2.607171E0,1.5647054E-1,0E0,0E0,0E0,0E0,0E0,0E0,0E0,0E0],"parents":[2147483647,0,0,1,1,2,2,3,3,4,4,5,5,6,6],"right_children":[2,4,6,8,10,12,14,-1,-1,-1,-1,-1,-1,-1,-1],"split_conditions":[3.9397738E0,7.3333335E0,1.9E1,2.7339E1,1.3E1,1.5E1,4.7422237E0,5.5956026E-3,-1.3007796E-2,6.010919E-4,-2.7733587E-3,4.1322517E-3,-1.0998352E-2,-1.6903361E-2,-6.3203177E-3],"split_indices":[69,38,26,10,15,17,68,0,0,0,0,0,0,0,0],"split_type":[0,0,0,0,0,0,0,0,0,0,0,0,0,0,0],"sum_hessian":[1.3257341E3,9.0296826E2,4.227659E2,3.013469E1,8.7283356E2,4.135699E2,9.196023E0,4.2258897E0,2.59088E1,3.8809036E2,4.8474323E2,4.0734573E2,6.224147E0,4.7053595E0,4.490663E0],"tree_param":{"num_deleted":"0","num_feature":"92","num_nodes":"15","size_leaf_vector":"1"}},{"base_weights":[-5.511865E-3,-5.9914295E-2,1.6570905E-1,-4.13513E-2,-2.785538E-1,2.0296858E-1,-5.9414852E-2,-3.9313152E-4,-5.268823E-3,-3.5032982E-3,-1.1795442E-2,8.630707E-3,3.5889454E-3,1.8989409E-3,-6.920343E-3],"categories":[],"categories_nodes":[],"categories_segments":[],"categories_sizes":[],"default_left":[0,0,1,0,0,0,1,0,0,0,0,0,0,0,0],"id":44,"left_children":[1,3,5,7,9,11,13,-1,-1,-1,-1,-1,-1,-1,-1],"loss_changes":[1.2435535E1,4.073351E0,2.7251844E0,4.0397677E0,1.9803514E0,2.2398262E0,1.397268E0,0E0,0E0,0E0,0E0,0E0,0E0,0E0,0E0],"parents":[2147483647,0,0,1,1,2,2,3,3,4,4,5,5,6,6],"right_children":[2,4,6,8,10,12,14,-1,-1,-1,-1,-1,-1,-1,-1],"split_conditions":[5.9001193E0,6.2937126E0,5E0,7E0,1.7898064E1,4E0,1.2E1,-3.9313152E-4,-5.268823E-3,-3.5032982E-3,-1.1795442E-2,8.630707E-3,3.5889454E-3,1.8989409E-3,-6.920343E-3],"split_indices":[68,19,72,76,70,49,42,0,0,0,0,0,0,0,0],"split_type":[0,0,0,0,0,0,0,0,0,0,0,0,0,0,0],"sum_hessian":[1.334095E3,1.01335376E3,3.207412E2,9.3556836E2,7.778539E1,2.756602E2,4.5081017E1,8.140995E2,1.2146885E2,4.6629986E1,3.1155405E1,7.929452E1,1.9636566E2,2.7899101E1,1.7181917E1],"tree_param":{"num_deleted":"0","num_feature":"92","num_nodes":"15","size_leaf_vector":"1"}},{"base_weights":[-1.7324482E-3,2.0936592E-1,-4.872674E-2,-8.699066E-2,2.36392E-1,-2.9343015E-2,-2.6624656E-1,-1.2102436E-2,2.8997064E-3,6.656063E-3,1.7318797E-4,-1.0608935E-3,5.9848763E-3,-4.0032263E-3,-1.2584354E-2],"categories":[],"categories_nodes":[],"categories_segments":[],"categories_sizes":[],"default_left":[0,0,0,0,1,0,0,0,0,0,0,0,0,0,0],"id":45,"left_children":[1,3,5,7,9,11,13,-1,-1,-1,-1,-1,-1,-1,-1],"loss_changes":[1.3015928E1,1.948204E0,4.494428E0,1.7356523E0,1.4738426E0,3.4682326E0,2.0522451E0,0E0,0E0,0E0,0E0,0E0,0E0,0E0,0E0],"parents":[2147483647,0,0,1,1,2,2,3,3,4,4,5,5,6,6],"right_children":[2,4,6,8,10,12,14,-1,-1,-1,-1,-1,-1,-1,-1],"split_conditions":[6.5E0,2.801441E1,6.115942E0,-9.801E-1,5E0,2E1,1.9E1,-1.2102436E-2,2.8997064E-3,6.656063E-3,1.7318797E-4,-1.0608935E-3,5.9848763E-3,-4.0032263E-3,-1.2584354E-2],"split_indices":[30,4,19,82,72,15,30,0,0,0,0,0,0,0,0],"split_type":[0,0,0,0,0,0,0,0,0,0,0,0,0,0,0],"sum_hessian":[1.3116251E3,2.3780812E2,1.073817E3,1.9379702E1,2.1842842E2,9.874202E2,8.6396835E1,6.2533603E0,1.3126341E1,1.9275702E2,2.5671392E1,9.427064E2,4.471378E1,6.113512E1,2.5261715E1],"tree_param":{"num_deleted":"0","num_feature":"92","num_nodes":"15","size_leaf_vector":"1"}},{"base_weights":[-1.65834E-2,-7.121273E-2,1.3531594E-1,-8.140822E-2,3.236126E-1,3.3673716E-1,9.3498684E-2,-4.697479E-3,-1.078456E-3,1.1911337E-2,-1.4048911E-2,9.5177265E-3,-2.6411198E-3,-3.7114657E-4,4.353097E-3],"categories":[],"categories_nodes":[],"categories_segments":[],"categories_sizes":[],"default_left":[0,1,0,0,1,0,0,0,0,0,0,0,0,0,0],"id":46,"left_children":[1,3,5,7,9,11,13,-1,-1,-1,-1,-1,-1,-1,-1],"loss_changes":[1.1095001E1,3.9640903E0,2.9023232E0,3.8832293E0,3.6064212E0,1.2341762E0,2.590689E0,0E0,0E0,0E0,0E0,0E0,0E0,0E0,0E0],"parents":[2147483647,0,0,1,1,2,2,3,3,4,4,5,5,6,6],"right_children":[2,4,6,8,10,12,14,-1,-1,-1,-1,-1,-1,-1,-1],"split_conditions":[4.9204526E0,8.333333E0,3.75E0,1.0432584E1,1.5E1,6.3E1,1.0480337E1,-4.697479E-3,-1.078456E-3,1.1911337E-2,-1.4048911E-2,9.5177265E-3,-2.6411198E-3,-3.7114657E-4,4.353097E-3],"split_indices":[69,50,14,32,72,75,32,0,0,0,0,0,0,0,0],"split_type":[0,0,0,0,0,0,0,0,0,0,0,0,0,0,0],"sum_hessian":[1.3356548E3,9.832328E2,3.5242197E2,9.5950287E2,2.3729937E1,5.8964363E1,2.934576E2,2.5193625E2,7.075666E2,2.0727472E1,3.0024643E0,5.3965733E1,4.998628E0,1.2502455E2,1.6843304E2],"tree_param":{"num_deleted":"0","num_feature":"92","num_nodes":"15","size_leaf_vector":"1"}},{"base_weights":[2.0999631E-3,-6.375264E-2,1.4299916E-1,-1.3216457E-2,-1.6258876E-1,2.0998208E-1,-1.8096843E-1,4.577716E-3,-1.4516027E-3,-4.597076E-3,1.1290768E-2,5.949396E-3,-8.05287E-3,9.015186E-3,-5.5529047E-3],"categories":[],"categories_nodes":[],"categories_segments":[],"categories_sizes":[],"default_left":[0,1,1,0,0,0,0,0,0,0,0,0,0,0,0],"id":47,"left_children":[1,3,5,7,9,11,13,-1,-1,-1,-1,-1,-1,-1,-1],"loss_changes":[1.2144777E1,4.4304457E0,9.092246E0,5.204235E0,3.9889135E0,5.2274303E0,1.6650736E0,0E0,0E0,0E0,0E0,0E0,0E0,0E0,0E0],"parents":[2147483647,0,0,1,1,2,2,3,3,4,4,5,5,6,6],"right_children":[2,4,6,8,10,12,14,-1,-1,-1,-1,-1,-1,-1,-1],"split_conditions":[8E0,3.7522223E0,5E0,-3.002E-1,9.333333E0,1.6142857E1,3E0,4.577716E-3,-1.4516027E-3,-4.597076E-3,1.1290768E-2,5.949396E-3,-8.05287E-3,9.015186E-3,-5.5529047E-3],"split_indices":[51,64,72,81,50,14,25,0,0,0,0,0,0,0,0],"split_type":[0,0,0,0,0,0,0,0,0,0,0,0,0,0,0],"sum_hessian":[1.3060684E3,8.899615E2,4.1610693E2,5.9028613E2,2.9967535E2,3.453612E2,7.074571E1,1.0877965E2,4.815065E2,2.9046857E2,9.206777E0,3.2880347E2,1.6557753E1,4.2757273E0,6.6469986E1],"tree_param":{"num_deleted":"0","num_feature":"92","num_nodes":"15","size_leaf_vector":"1"}},{"base_weights":[-1.9979447E-3,2.0039327E-1,-4.3909367E-2,2.6948938E-1,7.170079E-2,-1.3990085E-1,4.5224763E-3,-4.847054E-3,7.4653695E-3,3.2378014E-3,-7.7465163E-3,1.0101257E-2,-4.046642E-3,1.246167E-3,-2.9022745E-3],"categories":[],"categories_nodes":[],"categories_segments":[],"categories_sizes":[],"default_left":[0,0,0,0,1,0,1,0,0,0,0,0,0,0,0],"id":48,"left_children":[1,3,5,7,9,11,13,-1,-1,-1,-1,-1,-1,-1,-1],"loss_changes":[1.1306402E1,1.9790945E0,5.156661E0,2.0638247E0,1.8247153E0,4.481745E0,4.0197945E0,0E0,0E0,0E0,0E0,0E0,0E0,0E0,0E0],"parents":[2147483647,0,0,1,1,2,2,3,3,4,4,5,5,6,6],"right_children":[2,4,6,8,10,12,14,-1,-1,-1,-1,-1,-1,-1,-1],"split_conditions":[6.5740237E0,-4.868243E0,7E0,-7.3333335E0,5.2352834E0,1.2E1,3.0026583E1,-4.847054E-3,7.4653695E-3,3.2378014E-3,-7.7465163E-3,1.0101257E-2,-4.046642E-3,1.246167E-3,-2.9022745E-3],"split_indices":[70,31,51,50,62,72,5,0,0,0,0,0,0,0,0],"split_type":[0,0,0,0,0,0,0,0,0,0,0,0,0,0,0],"sum_hessian":[1.332716E3,2.2757649E2,1.1051394E3,1.4685674E2,8.071976E1,3.7066364E2,7.344758E2,8.147265E0,1.3870947E2,7.090016E1,9.819594E0,1.3534659E1,3.5712897E2,5.3489026E2,1.9958557E2],"tree_param":{"num_deleted":"0","num_feature":"92","num_nodes":"15","size_leaf_vector":"1"}},{"base_weights":[9.750011E-3,1.0084823E-1,-7.3708996E-2,1.879645E-1,1.8573888E-2,-1.902085E-1,-2.3920333E-2,5.074179E-3,-1.2236627E-2,9.957475E-3,-3.6701554E-4,-6.0670895E-6,-8.453661E-3,7.345129E-3,-1.7838512E-3],"categories":[],"categories_nodes":[],"categories_segments":[],"categories_sizes":[],"default_left":[0,0,0,0,0,1,0,0,0,0,0,0,0,0,0],"id":49,"left_children":[1,3,5,7,9,11,13,-1,-1,-1,-1,-1,-1,-1,-1],"loss_changes":[9.927135E0,4.452867E0,3.9224842E0,3.1469946E0,4.122203E0,5.6730437E0,7.2124534E0,0E0,0E0,0E0,0E0,0E0,0E0,0E0,0E0],"parents":[2147483647,0,0,1,1,2,2,3,3,4,4,5,5,6,6],"right_children":[2,4,6,8,10,12,14,-1,-1,-1,-1,-1,-1,-1,-1],"split_conditions":[1.1666666E0,1.1E1,1.2289936E1,6E-1,5E0,5.416456E1,9.708333E0,5.074179E-3,-1.2236627E-2,9.957475E-3,-3.6701554E-4,-6.0670895E-6,-8.453661E-3,7.345129E-3,-1.7838512E-3],"split_indices":[19,49,70,57,18,87,24,0,0,0,0,0,0,0,0],"split_type":[0,0,0,0,0,0,0,0,0,0,0,0,0,0,0],"sum_hessian":[1.3033577E3,6.2363245E2,6.797252E2,3.0168884E2,3.219436E2,2.0207207E2,4.7765317E2,2.959819E2,5.706943E0,2.5282196E1,2.966614E2,8.920381E1,1.1286825E2,6.109799E1,4.1655518E2],"tree_param":{"num_deleted":"0","num_feature":"92","num_nodes":"15","size_leaf_vector":"1"}},{"base_weights":[1.053379E-3,1.5726703E-1,-4.804398E-2,2.0756212E-1,1.0276919E-2,-6.9515705E-2,2.1327077E-1,8.3161965E-3,3.5205067E-3,7.4178986E-3,-3.032017E-3,-7.845865E-4,-4.6111043E-3,-1.7257208E-4,1.23526715E-2],"categories":[],"categories_nodes":[],"categories_segments":[],"categories_sizes":[],"default_left":[0,1,1,0,0,0,1,0,0,0,0,0,0,0,0],"id":50,"left_children":[1,3,5,7,9,11,13,-1,-1,-1,-1,-1,-1,-1,-1],"loss_changes":[1.0038418E1,2.2910714E0,5.5793343E0,1.8489008E0,3.1205294E0,4.0041156E0,4.713598E0,0E0,0E0,0E0,0E0,0E0,0E0,0E0,0E0],"parents":[2147483647,0,0,1,1,2,2,3,3,4,4,5,5,6,6],"right_children":[2,4,6,8,10,12,14,-1,-1,-1,-1,-1,-1,-1,-1],"split_conditions":[8.698349E0,1.4945724E1,1.3134285E0,4.5E0,4E0,1.55E1,6.9712326E1,8.3161965E-3,3.5205067E-3,7.4178986E-3,-3.032017E-3,-7.845865E-4,-4.6111043E-3,-1.7257208E-4,1.23526715E-2],"split_indices":[67,48,22,30,49,14,87,0,0,0,0,0,0,0,0],"split_type":[0,0,0,0,0,0,0,0,0,0,0,0,0,0,0],"sum_hessian":[1.3054355E3,3.1213754E2,9.9329803E2,2.3174854E2,8.038899E1,9.1890967E2,7.438835E1,7.872393E1,1.5302461E2,2.5145239E1,5.5243755E1,6.915896E2,2.273201E2,4.2044823E1,3.2343525E1],"tree_param":{"num_deleted":"0","num_feature":"92","num_nodes":"15","size_leaf_vector":"1"}},{"base_weights":[3.1972975E-3,1.2153809E-1,-6.158218E-2,1.571918E-1,-1.4692298E-1,-8.650459E-2,1.6656892E-1,4.283111E-3,-1.0183654E-2,3.3786166E-3,-8.077457E-3,-4.0702885E-3,-2.4715086E-4,6.9893175E-3,-7.872853E-3],"categories":[],"categories_nodes":[],"categories_segments":[],"categories_sizes":[],"default_left":[0,1,0,1,0,0,0,0,0,0,0,0,0,0,0],"id":51,"left_children":[1,3,5,7,9,11,13,-1,-1,-1,-1,-1,-1,-1,-1],"loss_changes":[9.890303E0,4.3950377E0,4.7413745E0,3.2688885E0,2.732236E0,4.3764105E0,4.54353E0,0E0,0E0,0E0,0E0,0E0,0E0,0E0,0E0],"parents":[2147483647,0,0,1,1,2,2,3,3,4,4,5,5,6,6],"right_children":[2,4,6,8,10,12,14,-1,-1,-1,-1,-1,-1,-1,-1],"split_conditions":[1.0529411E1,1.3E1,4E-1,1.5E1,8E0,1.0477612E1,1.625E1,4.283111E-3,-1.0183654E-2,3.3786166E-3,-8.077457E-3,-4.0702885E-3,-2.4715086E-4,6.9893175E-3,-7.872853E-3],"split_indices":[29,49,57,72,42,32,24,0,0,0,0,0,0,0,0],"split_type":[0,0,0,0,0,0,0,0,0,0,0,0,0,0,0],"sum_hessian":[1.287384E3,4.5565305E2,8.31731E2,4.0292804E2,5.272501E1,7.507779E2,8.095315E1,3.9393982E2,8.988221E0,2.0141882E1,3.258313E1,3.7493634E2,3.7584152E2,6.6072914E1,1.4880231E1],"tree_param":{"num_deleted":"0","num_feature":"92","num_nodes":"15","size_leaf_vector":"1"}},{"base_weights":[-1.7273164E-3,1.9180575E-1,-4.22586E-2,2.7815634E-1,2.4800682E-2,-1.420725E-1,8.958919E-3,-4.373606E-3,7.6403855E-3,-3.2956505E-3,3.8730816E-3,-5.834063E-3,-3.5755942E-4,1.5429484E-3,-2.2767694E-3],"categories":[],"categories_nodes":[],"categories_segments":[],"categories_sizes":[],"default_left":[0,0,0,0,1,0,1,0,0,0,0,0,0,0,0],"id":52,"left_children":[1,3,5,7,9,11,13,-1,-1,-1,-1,-1,-1,-1,-1],"loss_changes":[1.0386881E1,3.2680883E0,5.621825E0,1.9401255E0,1.64524E0,4.31885E0,3.8296626E0,0E0,0E0,0E0,0E0,0E0,0E0,0E0,0E0],"parents":[2147483647,0,0,1,1,2,2,3,3,4,4,5,5,6,6],"right_children":[2,4,6,8,10,12,14,-1,-1,-1,-1,-1,-1,-1,-1],"split_conditions":[6.5740237E0,-4.8333335E0,7E0,-7.3333335E0,-1.4182575E1,7.667479E-1,1.3E1,-4.373606E-3,7.6403855E-3,-3.2956505E-3,3.8730816E-3,-5.834063E-3,-3.5755942E-4,1.5429484E-3,-2.2767694E-3],"split_indices":[70,31,51,50,21,69,49,0,0,0,0,0,0,0,0],"split_type":[0,0,0,0,0,0,0,0,0,0,0,0,0,0,0],"sum_hessian":[1.3240304E3,2.2819954E2,1.0958309E3,1.4958945E2,7.86101E1,3.7167688E2,7.2415405E2,8.032517E0,1.4155693E2,3.531742E1,4.329268E1,2.1584761E2,1.5582927E2,4.750038E2,2.4915022E2],"tree_param":{"num_deleted":"0","num_feature":"92","num_nodes":"15","size_leaf_vector":"1"}},{"base_weights":[-9.468044E-3,-7.15001E-2,1.257342E-1,-2.0613854E-1,-2.3389159E-2,1.5609165E-1,-2.7294677E-1,-9.60439E-3,-3.1857155E-3,-2.3658892E-4,-1.2104429E-2,5.0327755E-3,-1.7149047E-3,-1.5021068E-2,-2.381748E-3],"categories":[],"categories_nodes":[],"categories_segments":[],"categories_sizes":[],"default_left":[0,0,0,0,1,1,0,0,0,0,0,0,0,0,0],"id":53,"left_children":[1,3,5,7,9,11,13,-1,-1,-1,-1,-1,-1,-1,-1],"loss_changes":[1.1079798E1,5.8438063E0,5.056258E0,3.2344513E0,4.241997E0,3.956112E0,1.5923958E0,0E0,0E0,0E0,0E0,0E0,0E0,0E0,0E0],"parents":[2147483647,0,0,1,1,2,2,3,3,4,4,5,5,6,6],"right_children":[2,4,6,8,10,12,14,-1,-1,-1,-1,-1,-1,-1,-1],"split_conditions":[8E0,1.0432584E1,1.4043478E1,3.3333333E0,1.1600771E2,5E0,1.091626E2,-9.60439E-3,-3.1857155E-3,-2.3658892E-4,-1.2104429E-2,5.0327755E-3,-1.7149047E-3,-1.5021068E-2,-2.381748E-3],"split_indices":[51,32,18,50,2,72,46,0,0,0,0,0,0,0,0],"split_type":[0,0,0,0,0,0,0,0,0,0,0,0,0,0,0],"sum_hessian":[1.3196628E3,9.054464E2,4.142165E2,2.3695758E2,6.6848883E2,3.857063E2,2.851019E1,7.10639E1,1.6589368E2,6.5008014E2,1.8408693E1,3.2154343E2,6.416288E1,8.98473E0,1.952546E1],"tree_param":{"num_deleted":"0","num_feature":"92","num_nodes":"15","size_leaf_vector":"1"}},{"base_weights":[-4.7387485E-3,1.0213996E-1,-6.9634035E-2,4.070365E-1,7.4991964E-2,-2.3436515E-1,-4.4221923E-2,1.2654816E-2,3.0361349E-3,2.7731133E-3,-3.0440676E-3,7.323034E-3,-7.829762E-3,-4.4207493E-4,-5.7657138E-3],"categories":[],"categories_nodes":[],"categories_segments":[],"categories_sizes":[],"default_left":[0,0,0,1,1,0,0,0,0,0,0,0,0,0,0],"id":54,"left_children":[1,3,5,7,9,11,13,-1,-1,-1,-1,-1,-1,-1,-1],"loss_changes":[8.979452E0,3.9665442E0,3.3373165E0,9.923587E-1,3.1959026E0,4.5414248E0,3.4357297E0,0E0,0E0,0E0,0E0,0E0,0E0,0E0,0E0],"parents":[2147483647,0,0,1,1,2,2,3,3,4,4,5,5,6,6],"right_children":[2,4,6,8,10,12,14,-1,-1,-1,-1,-1,-1,-1,-1],"split_conditions":[2.1062271E-1,3E0,-5.1706666E-1,-6.312E-1,1.3E1,4E0,1.65E1,1.2654816E-2,3.0361349E-3,2.7731133E-3,-3.0440676E-3,7.323034E-3,-7.829762E-3,-4.4207493E-4,-5.7657138E-3],"split_indices":[31,25,81,82,49,42,18,0,0,0,0,0,0,0,0],"split_type":[0,0,0,0,0,0,0,0,0,0,0,0,0,0,0],"sum_hessian":[1.2930728E3,4.8771692E2,8.0535583E2,3.8430527E1,4.4928638E2,1.0600871E2,6.993471E2,2.769303E1,1.0737499E1,3.8070425E2,6.858212E1,1.3268299E1,9.274042E1,6.1361707E2,8.573004E1],"tree_param":{"num_deleted":"0","num_feature":"92","num_nodes":"15","size_leaf_vector":"1"}},{"base_weights":[7.044695E-3,-4.385796E-2,1.5279256E-1,-1.6174519E-1,-4.746278E-3,1.7227349E-1,-1.2869275E-1,-5.6689936E-3,2.932915E-4,9.324637E-3,-4.8400345E-4,6.648498E-3,2.6866428E-3,-6.6818832E-3,8.707492E-4],"categories":[],"categories_nodes":[],"categories_segments":[],"categories_sizes":[],"default_left":[0,0,1,0,0,0,1,0,0,0,0,0,0,0,0],"id":55,"left_children":[1,3,5,7,9,11,13,-1,-1,-1,-1,-1,-1,-1,-1],"loss_changes":[9.529131E0,4.3649735E0,1.8503203E0,2.6871824E0,3.9207003E0,1.8269396E0,5.25848E-1,0E0,0E0,0E0,0E0,0E0,0E0,0E0,0E0],"parents":[2147483647,0,0,1,1,2,2,3,3,4,4,5,5,6,6],"right_children":[2,4,6,8,10,12,14,-1,-1,-1,-1,-1,-1,-1,-1],"split_conditions":[5.3043156E0,1.0434978E1,8E0,4.2E1,5.4E0,5.6666665E0,3.1273058E1,-5.6689936E-3,2.932915E-4,9.324637E-3,-4.8400345E-4,6.648498E-3,2.6866428E-3,-6.6818832E-3,8.707492E-4],"split_indices":[69,32,72,75,24,14,3,0,0,0,0,0,0,0,0],"split_type":[0,0,0,0,0,0,0,0,0,0,0,0,0,0,0],"sum_hessian":[1.2810591E3,9.4946875E2,3.315904E2,2.3511427E2,7.1435443E2,3.1082236E2,2.076804E1,1.7121625E2,6.3898026E1,2.5439573E1,6.8891486E2,1.25210106E2,1.8561224E2,1.1228845E1,9.539194E0],"tree_param":{"num_deleted":"0","num_feature":"92","num_nodes":"15","size_leaf_vector":"1"}},{"base_weights":[6.9102366E-3,2.0932175E-1,-2.1254199E-2,3.390667E-1,7.141316E-2,-9.226846E-2,2.8876774E-2,3.6462897E-3,1.1358293E-2,4.982105E-3,-3.6389248E-3,-1.6106634E-3,-7.669496E-3,-1.6005473E-3,2.7816244E-3],"categories":[],"categories_nodes":[],"categories_segments":[],"categories_sizes":[],"default_left":[0,1,0,0,0,0,0,0,0,0,0,0,0,0,0],"id":56,"left_children":[1,3,5,7,9,11,13,-1,-1,-1,-1,-1,-1,-1,-1],"loss_changes":[7.5314875E0,2.8226748E0,4.126682E0,1.7115469E0,2.2505705E0,2.8080459E0,5.2007265E0,0E0,0E0,0E0,0E0,0E0,0E0,0E0,0E0],"parents":[2147483647,0,0,1,1,2,2,3,3,4,4,5,5,6,6],"right_children":[2,4,6,8,10,12,14,-1,-1,-1,-1,-1,-1,-1,-1],"split_conditions":[-4.868243E0,4E0,3.7341598E-1,9E0,1.873397E-1,3.3315524E-1,1.0478048E1,3.6462897E-3,1.1358293E-2,4.982105E-3,-3.6389248E-3,-1.6106634E-3,-7.669496E-3,-1.6005473E-3,2.7816244E-3],"split_indices":[31,49,68,51,20,68,32,0,0,0,0,0,0,0,0],"split_type":[0,0,0,0,0,0,0,0,0,0,0,0,0,0,0],"sum_hessian":[1.3160475E3,1.6040085E2,1.1556466E3,8.1521416E1,7.8879425E1,4.7869446E2,6.7695215E2,3.1631477E1,4.988994E1,4.9971313E1,2.8908113E1,4.252649E2,5.342958E1,3.177148E2,3.5923734E2],"tree_param":{"num_deleted":"0","num_feature":"92","num_nodes":"15","size_leaf_vector":"1"}},{"base_weights":[4.5840824E-3,1.1664668E-1,-5.590924E-2,1.5504707E-1,-1.6541408E-1,-4.3765694E-2,-3.9590922E-1,7.1183816E-3,2.6802148E-3,-7.786432E-3,9.669176E-3,-2.8248203E-3,3.011087E-4,-5.37539E-5,-1.1819794E-2],"categories":[],"categories_nodes":[],"categories_segments":[],"categories_sizes":[],"default_left":[0,1,0,0,0,0,0,0,0,0,0,0,0,0,0],"id":57,"left_children":[1,3,5,7,9,11,13,-1,-1,-1,-1,-1,-1,-1,-1],"loss_changes":[8.860402E0,4.9903073E0,3.438739E0,2.4389143E0,4.556999E0,3.179142E0,8.2410574E-1,0E0,0E0,0E0,0E0,0E0,0E0,0E0,0E0],"parents":[2147483647,0,0,1,1,2,2,3,3,4,4,5,5,6,6],"right_children":[2,4,6,8,10,12,14,-1,-1,-1,-1,-1,-1,-1,-1],"split_conditions":[1.025E1,7E0,1.82E1,2.66162E1,9.991121E0,1.0466216E1,-1.3333334E0,7.1183816E-3,2.6802148E-3,-7.786432E-3,9.669176E-3,-2.8248203E-3,3.011087E-4,-5.37539E-5,-1.1819794E-2],"split_indices":[28,72,17,5,71,32,77,0,0,0,0,0,0,0,0],"split_type":[0,0,0,0,0,0,0,0,0,0,0,0,0,0,0],"sum_hessian":[1.3041713E3,4.5746042E2,8.467109E2,4.03352E2,5.410842E1,8.188861E2,2.7824755E1,1.0679439E2,2.9655762E2,4.327889E1,1.0829532E1,3.658503E2,4.5303583E2,4.9257636E0,2.289899E1],"tree_param":{"num_deleted":"0","num_feature":"92","num_nodes":"15","size_leaf_vector":"1"}},{"base_weights":[-5.20008E-3,-6.2432535E-2,1.2136764E-1,3.4093652E-2,-1.0878409E-1,4.1862768E-1,9.438672E-2,1.3309735E-3,-1.3524589E-2,-9.751833E-3,-2.1877433E-3,-4.172171E-3,1.2217204E-2,1.0484411E-2,1.8609175E-3],"categories":[],"categories_nodes":[],"categories_segments":[],"categories_sizes":[],"default_left":[0,0,0,1,0,0,0,0,0,0,0,0,0,0,0],"id":58,"left_children":[1,3,5,7,9,11,13,-1,-1,-1,-1,-1,-1,-1,-1],"loss_changes":[9.472616E0,4.0447936E0,3.172802E0,3.2008286E0,3.5685353E0,1.4781528E0,2.348502E0,0E0,0E0,0E0,0E0,0E0,0E0,0E0,0E0],"parents":[2147483647,0,0,1,1,2,2,3,3,4,4,5,5,6,6],"right_children":[2,4,6,8,10,12,14,-1,-1,-1,-1,-1,-1,-1,-1],"split_conditions":[4E0,-1.3333334E0,5E0,-5.7933334E-2,9.665656E0,2.368421E0,8E0,1.3309735E-3,-1.3524589E-2,-9.751833E-3,-2.1877433E-3,-4.172171E-3,1.2217204E-2,1.0484411E-2,1.8609175E-3],"split_indices":[69,77,72,81,66,29,38,0,0,0,0,0,0,0,0],"split_type":[0,0,0,0,0,0,0,0,0,0,0,0,0,0,0],"sum_hessian":[1.3064569E3,9.0054004E2,4.0591693E2,2.9153375E2,6.090062E2,3.2261093E1,3.7365585E2,2.831873E2,8.346468E0,4.1272057E1,5.677342E2,3.1474671E0,2.9113625E1,2.0162981E1,3.5349286E2],"tree_param":{"num_deleted":"0","num_feature":"92","num_nodes":"15","size_leaf_vector":"1"}},{"base_weights":[9.564906E-3,1.5706787E-1,-2.5199415E-2,2.5818655E-1,-3.5184953E-2,-1.3130805E-2,-3.7869987E-1,3.418925E-4,7.197901E-3,1.5971208E-3,-7.961914E-3,-9.294694E-4,4.7885575E-3,2.1302686E-3,-1.2074022E-2],"categories":[],"categories_nodes":[],"categories_segments":[],"categories_sizes":[],"default_left":[0,1,1,0,0,1,0,0,0,0,0,0,0,0,0],"id":59,"left_children":[1,3,5,7,9,11,13,-1,-1,-1,-1,-1,-1,-1,-1],"loss_changes":[6.7156744E0,4.8884034E0,4.4672594E0,1.1594143E0,2.4778125E0,5.031112E0,1.7544928E0,0E0,0E0,0E0,0E0,0E0,0E0,0E0,0E0],"parents":[2147483647,0,0,1,1,2,2,3,3,4,4,5,5,6,6],"right_children":[2,4,6,8,10,12,14,-1,-1,-1,-1,-1,-1,-1,-1],"split_conditions":[6.5E0,4.910263E0,2E1,1.0408163E1,9E0,2.5865133E1,9.360069E1,3.418925E-4,7.197901E-3,1.5971208E-3,-7.961914E-3,-9.294694E-4,4.7885575E-3,2.1302686E-3,-1.2074022E-2],"split_indices":[30,64,49,32,49,21,46,0,0,0,0,0,0,0,0],"split_type":[0,0,0,0,0,0,0,0,0,0,0,0,0,0,0],"sum_hessian":[1.3053062E3,2.4884213E2,1.056464E3,1.6318787E2,8.5654274E1,1.0228632E3,3.3600822E1,1.821357E1,1.4497429E2,6.377355E1,2.1880724E1,9.1648785E2,1.06375374E2,6.0233655E0,2.7577457E1],"tree_param":{"num_deleted":"0","num_feature":"92","num_nodes":"15","size_leaf_vector":"1"}},{"base_weights":[-3.7237068E-3,-5.7482705E-2,1.2617029E-1,-6.4084984E-2,3.9217126E-1,1.5149014E-1,-1.8610933E-1,-2.9875783E-3,-2.4120917E-4,1.975096E-3,1.4001863E-2,1.3616307E-3,5.4961033E-3,-8.2105346E-4,-1.2502178E-2],"categories":[],"categories_nodes":[],"categories_segments":[],"categories_sizes":[],"default_left":[0,1,0,0,0,0,1,0,0,0,0,0,0,0,0],"id":60,"left_children":[1,3,5,7,9,11,13,-1,-1,-1,-1,-1,-1,-1,-1],"loss_changes":[9.301305E0,2.7927015E0,3.105689E0,2.7936947E0,6.054416E-1,2.3566132E0,1.3439568E0,0E0,0E0,0E0,0E0,0E0,0E0,0E0,0E0],"parents":[2147483647,0,0,1,1,2,2,3,3,4,4,5,5,6,6],"right_children":[2,4,6,8,10,12,14,-1,-1,-1,-1,-1,-1,-1,-1],"split_conditions":[4.3772764E0,9.333333E0,1.3142858E1,1.0477612E1,4.0794888E0,1.0476191E1,1.1231167E2,-2.9875783E-3,-2.4120917E-4,1.975096E-3,1.4001863E-2,1.3616307E-3,5.4961033E-3,-8.2105346E-4,-1.2502178E-2],"split_indices":[69,50,14,32,62,32,46,0,0,0,0,0,0,0,0],"split_type":[0,0,0,0,0,0,0,0,0,0,0,0,0,0,0],"sum_hessian":[1.3309434E3,9.422877E2,3.886556E2,9.297165E2,1.2571179E1,3.6027905E2,2.8376568E1,4.592023E2,4.7051422E2,5.108707E0,7.4624724E0,1.5025696E2,2.100221E2,2.0024681E1,8.351888E0],"tree_param":{"num_deleted":"0","num_feature":"92","num_nodes":"15","size_leaf_vector":"1"}},{"base_weights":[-2.857548E-3,2.4016951E-1,-3.1087881E-2,1.2092015E-1,3.5409337E-1,2.0808096E-1,-4.8858546E-2,-1.9277763E-3,5.672211E-3,-1.2008172E-3,9.395302E-3,3.9044677E-4,1.0095469E-2,-8.049936E-4,-8.118137E-3],"categories":[],"categories_nodes":[],"categories_segments":[],"categories_sizes":[],"default_left":[0,0,0,0,0,1,1,0,0,0,0,0,0,0,0],"id":61,"left_children":[1,3,5,7,9,11,13,-1,-1,-1,-1,-1,-1,-1,-1],"loss_changes":[8.720545E0,1.7061248E0,4.8471346E0,1.4291179E0,6.3318443E-1,2.9192517E0,4.8437395E0,0E0,0E0,0E0,0E0,0E0,0E0,0E0,0E0],"parents":[2147483647,0,0,1,1,2,2,3,3,4,4,5,5,6,6],"right_children":[2,4,6,8,10,12,14,-1,-1,-1,-1,-1,-1,-1,-1],"split_conditions":[5.5365853E0,2.5509E1,1E1,4.908639E0,-6.6666665E0,-3.1189266E-1,1.9E1,-1.9277763E-3,5.672211E-3,-1.2008172E-3,9.395302E-3,3.9044677E-4,1.0095469E-2,-8.049936E-4,-8.118137E-3],"split_indices":[18,12,72,63,50,22,49,0,0,0,0,0,0,0,0],"split_type":[0,0,0,0,0,0,0,0,0,0,0,0,0,0,0],"sum_hessian":[1.2720396E3,1.3123389E2,1.1408057E3,6.555434E1,6.567955E1,7.777147E1,1.0630342E3,2.2616938E1,4.2937397E1,3.0675406E0,6.261201E1,4.0015804E1,3.7755665E1,1.0038913E3,5.9142857E1],"tree_param":{"num_deleted":"0","num_feature":"92","num_nodes":"15","size_leaf_vector":"1"}},{"base_weights":[-0E0,-5.3664126E-2,1.14503756E-1,-6.4404667E-3,-1.3752794E-1,1.3190722E-1,-2.0237303E-1,-4.23452E-3,1.2125106E-3,8.154768E-3,-4.233724E-3,2.9396466E-3,1.1545472E-2,-9.765948E-3,1.1758929E-3],"categories":[],"categories_nodes":[],"categories_segments":[],"categories_sizes":[],"default_left":[0,0,1,0,0,1,1,0,0,0,0,0,0,0,0],"id":62,"left_children":[1,3,5,7,9,11,13,-1,-1,-1,-1,-1,-1,-1,-1],"loss_changes":[8.0262985E0,3.5049086E0,2.3189645E0,5.127132E0,4.7525454E0,1.7594166E0,1.0764611E0,0E0,0E0,0E0,0E0,0E0,0E0,0E0,0E0],"parents":[2147483647,0,0,1,1,2,2,3,3,4,4,5,5,6,6],"right_children":[2,4,6,8,10,12,14,-1,-1,-1,-1,-1,-1,-1,-1],"split_conditions":[3.6537015E0,1.4125E1,1.1E1,1.5709527E1,1.9924166E0,2.1979357E1,3.204612E1,-4.23452E-3,1.2125106E-3,8.154768E-3,-4.233724E-3,2.9396466E-3,1.1545472E-2,-9.765948E-3,1.1758929E-3],"split_indices":[69,14,72,36,62,36,3,0,0,0,0,0,0,0,0],"split_type":[0,0,0,0,0,0,0,0,0,0,0,0,0,0,0],"sum_hessian":[1.3037961E3,8.878572E2,4.1593903E2,5.6946246E2,3.183947E2,3.951367E2,2.0802341E1,1.4352928E2,4.2593317E2,1.9649841E1,2.9874487E2,3.8028802E2,1.484866E1,1.1760034E1,9.042308E0],"tree_param":{"num_deleted":"0","num_feature":"92","num_nodes":"15","size_leaf_vector":"1"}},{"base_weights":[1.14069255E-2,1.1772068E-1,-4.332772E-2,1.3970149E-1,-2.8210434E-1,-1.6334476E-1,-4.21632E-3,7.5656096E-3,2.4179912E-3,1.22284265E-2,-1.218232E-2,-5.1613557E-3,4.8607695E-3,-5.727758E-3,4.2447957E-4],"categories":[],"categories_nodes":[],"categories_segments":[],"categories_sizes":[],"default_left":[0,0,0,0,0,0,0,0,0,0,0,0,0,0,0],"id":63,"left_children":[1,3,5,7,9,11,13,-1,-1,-1,-1,-1,-1,-1,-1],"loss_changes":[7.6417875E0,3.9490528E0,4.04572E0,2.9007893E0,3.9350023E0,3.3126268E0,3.1449583E0,0E0,0E0,0E0,0E0,0E0,0E0,0E0,0E0],"parents":[2147483647,0,0,1,1,2,2,3,3,4,4,5,5,6,6],"right_children":[2,4,6,8,10,12,14,-1,-1,-1,-1,-1,-1,-1,-1],"split_conditions":[-2.7017197E-1,1.38E1,1.0432584E1,4E0,3.0543167E1,3.3333334E-1,9.698853E0,7.5656096E-3,2.4179912E-3,1.22284265E-2,-1.218232E-2,-5.1613557E-3,4.8607695E-3,-5.727758E-3,4.2447957E-4],"split_indices":[31,67,32,49,3,57,70,0,0,0,0,0,0,0,0],"split_type":[0,0,0,0,0,0,0,0,0,0,0,0,0,0,0],"sum_hessian":[1.3100823E3,4.454804E2,8.646019E2,4.2311966E2,2.236075E1,2.1109714E2,6.5350476E2,8.6577995E1,3.3654166E2,4.3057046E0,1.8055044E1,1.8902356E2,2.2073578E1,5.584735E1,5.976574E2],"tree_param":{"num_deleted":"0","num_feature":"92","num_nodes":"15","size_leaf_vector":"1"}},{"base_weights":[3.6147768E-3,-8.2631245E-2,7.448322E-2,6.0835786E-2,-1.2534307E-1,-2.0233028E-2,1.4712787E-1,-3.938745E-3,4.6789655E-3,-3.4860054E-3,9.625449E-3,1.052058E-2,-1.1590089E-3,-1.856015E-3,4.666058E-3],"categories":[],"categories_nodes":[],"categories_segments":[],"categories_sizes":[],"default_left":[0,0,0,0,1,0,0,0,0,0,0,0,0,0,0],"id":64,"left_children":[1,3,5,7,9,11,13,-1,-1,-1,-1,-1,-1,-1,-1],"loss_changes":[7.870967E0,3.5700355E0,4.8842936E0,3.708858E0,3.2526073E0,3.5246046E0,3.5342207E0,0E0,0E0,0E0,0E0,0E0,0E0,0E0,0E0],"parents":[2147483647,0,0,1,1,2,2,3,3,4,4,5,5,6,6],"right_children":[2,4,6,8,10,12,14,-1,-1,-1,-1,-1,-1,-1,-1],"split_conditions":[1.2969501E0,1.3E1,1.0478048E1,-2E0,8.7E1,-6.7076025E0,-4.6666665E0,-3.938745E-3,4.6789655E-3,-3.4860054E-3,9.625449E-3,1.052058E-2,-1.1590089E-3,-1.856015E-3,4.666058E-3],"split_indices":[68,49,32,76,88,19,50,0,0,0,0,0,0,0,0],"split_type":[0,0,0,0,0,0,0,0,0,0,0,0,0,0,0],"sum_hessian":[1.2858898E3,5.793053E2,7.065845E2,1.3226564E2,4.4703967E2,3.0641562E2,4.0016885E2,4.8089756E1,8.417588E1,4.3592145E2,1.111825E1,1.6077461E1,2.9033817E2,6.0094845E1,3.40074E2],"tree_param":{"num_deleted":"0","num_feature":"92","num_nodes":"15","size_leaf_vector":"1"}},{"base_weights":[-4.773551E-3,-5.956363E-2,1.2150249E-1,2.9546106E-1,-7.109435E-2,1.6905192E-1,-1.2299575E-1,-7.688556E-3,1.0089065E-2,-5.981241E-3,-1.2103088E-3,9.770612E-3,3.3002563E-3,-5.483695E-3,6.9524283E-3],"categories":[],"categories_nodes":[],"categories_segments":[],"categories_sizes":[],"default_left":[0,0,1,0,0,0,1,0,0,0,0,0,0,0,0],"id":65,"left_children":[1,3,5,7,9,11,13,-1,-1,-1,-1,-1,-1,-1,-1],"loss_changes":[9.085495E0,3.7522237E0,4.6419463E0,2.0087903E0,3.351039E0,2.6333647E0,2.562845E0,0E0,0E0,0E0,0E0,0E0,0E0,0E0,0E0],"parents":[2147483647,0,0,1,1,2,2,3,3,4,4,5,5,6,6],"right_children":[2,4,6,8,10,12,14,-1,-1,-1,-1,-1,-1,-1,-1],"split_conditions":[8E0,5.978525E0,5E0,-6E0,9.437967E0,2.4818332E0,4.6714287E-2,-7.688556E-3,1.0089065E-2,-5.981241E-3,-1.2103088E-3,9.770612E-3,3.3002563E-3,-5.483695E-3,6.9524283E-3],"split_indices":[51,66,72,76,66,62,22,0,0,0,0,0,0,0,0],"split_type":[0,0,0,0,0,0,0,0,0,0,0,0,0,0,0],"sum_hessian":[1.3120336E3,9.1593677E2,3.960968E2,2.7765188E1,8.881716E2,3.322075E2,6.3889317E1,3.7997472E0,2.396544E1,1.0390496E2,7.842666E2,4.5792427E1,2.8641504E2,5.208073E1,1.1808586E1],"tree_param":{"num_deleted":"0","num_feature":"92","num_nodes":"15","size_leaf_vector":"1"}},{"base_weights":[7.4358676E-3,1.666124E-1,-2.9843682E-2,2.3982805E-1,2.8703714E-2,-4.3934874E-2,2.3614058E-1,4.635333E-3,9.840808E-3,8.5104285E-3,-1.5853677E-3,7.207595E-3,-1.3579464E-3,1.0727935E-2,-2.9456972E-3],"categories":[],"categories_nodes":[],"categories_segments":[],"categories_sizes":[],"default_left":[0,1,0,1,0,0,0,0,0,0,0,0,0,0,0],"id":66,"left_children":[1,3,5,7,9,11,13,-1,-1,-1,-1,-1,-1,-1,-1],"loss_changes":[7.8473344E0,2.500719E0,3.9988444E0,1.2362413E0,2.5950289E0,3.4994302E0,3.7428098E0,0E0,0E0,0E0,0E0,0E0,0E0,0E0,0E0],"parents":[2147483647,0,0,1,1,2,2,3,3,4,4,5,5,6,6],"right_children":[2,4,6,8,10,12,14,-1,-1,-1,-1,-1,-1,-1,-1],"split_conditions":[6.5E0,4.910263E0,7E1,1.363E1,-6.7076025E0,4.3333335E0,1.2706185E1,4.635333E-3,9.840808E-3,8.5104285E-3,-1.5853677E-3,7.207595E-3,-1.3579464E-3,1.0727935E-2,-2.9456972E-3],"split_indices":[30,64,52,40,19,14,67,0,0,0,0,0,0,0,0],"split_type":[0,0,0,0,0,0,0,0,0,0,0,0,0,0,0],"sum_hessian":[1.3182866E3,2.5000903E2,1.0682776E3,1.623522E2,8.765684E1,1.01568005E3,5.259745E1,1.2203343E2,4.0318768E1,1.9628246E1,6.802859E1,2.9676668E1,9.860034E2,3.408511E1,1.8512339E1],"tree_param":{"num_deleted":"0","num_feature":"92","num_nodes":"15","size_leaf_vector":"1"}},{"base_weights":[-1.1693165E-3,-4.2855795E-2,1.1327595E-1,-6.373823E-2,1.630595E-1,1.2848496E-1,-3.2673904E-1,3.101056E-3,-2.0653696E-3,7.351813E-3,-5.0489283E-3,-6.6197026E-3,3.6567913E-3,-1.5773527E-2,-3.3871592E-3],"categories":[],"categories_nodes":[],"categories_segments":[],"categories_sizes":[],"default_left":[0,1,1,0,0,0,0,0,0,0,0,0,0,0,0],"id":67,"left_children":[1,3,5,7,9,11,13,-1,-1,-1,-1,-1,-1,-1,-1],"loss_changes":[6.2888985E0,4.162654E0,2.3758693E0,3.1253428E0,4.323039E0,2.4114609E0,5.2515864E-1,0E0,0E0,0E0,0E0,0E0,0E0,0E0,0E0],"parents":[2147483647,0,0,1,1,2,2,3,3,4,4,5,5,6,6],"right_children":[2,4,6,8,10,12,14,-1,-1,-1,-1,-1,-1,-1,-1],"split_conditions":[4.72119E0,1.119993E0,1.3E1,2.3945172E0,1.225E1,7.993872E-1,5.3333335E0,3.101056E-3,-2.0653696E-3,7.351813E-3,-5.0489283E-3,-6.6197026E-3,3.6567913E-3,-1.5773527E-2,-3.3871592E-3],"split_indices":[69,22,72,62,24,47,25,0,0,0,0,0,0,0,0],"split_type":[0,0,0,0,0,0,0,0,0,0,0,0,0,0,0],"sum_hessian":[1.3176593E3,9.6694916E2,3.5071014E2,8.78985E2,8.7964165E1,3.3989694E2,1.0813195E1,7.929586E1,7.9968915E2,6.50754E1,2.2888763E1,1.3863283E1,3.2603366E2,3.0847707E0,7.7284245E0],"tree_param":{"num_deleted":"0","num_feature":"92","num_nodes":"15","size_leaf_vector":"1"}},{"base_weights":[6.265709E-3,-4.288941E-2,1.3649431E-1,-1.2932788E-1,6.545549E-3,1.5539803E-1,-1.8798923E-1,-3.6748179E-4,-5.2233804E-3,1.322463E-3,-3.0958722E-3,8.055995E-3,3.0719521E-3,-8.055121E-3,5.325544E-3],"categories":[],"categories_nodes":[],"categories_segments":[],"categories_sizes":[],"default_left":[0,0,1,0,1,0,0,0,0,0,0,0,0,0,0],"id":68,"left_children":[1,3,5,7,9,11,13,-1,-1,-1,-1,-1,-1,-1,-1],"loss_changes":[8.350282E0,4.0532236E0,2.2194057E0,3.1207585E0,3.635836E0,1.7538166E0,1.1477605E0,0E0,0E0,0E0,0E0,0E0,0E0,0E0,0E0],"parents":[2147483647,0,0,1,1,2,2,3,3,4,4,5,5,6,6],"right_children":[2,4,6,8,10,12,14,-1,-1,-1,-1,-1,-1,-1,-1],"split_conditions":[4.72119E0,7E0,1.1E1,1.3E1,2.9977087E1,3.75E0,2.6189743E1,-3.6748179E-4,-5.2233804E-3,1.322463E-3,-3.0958722E-3,8.055995E-3,3.0719521E-3,-8.055121E-3,5.325544E-3],"split_indices":[69,51,72,15,5,14,86,0,0,0,0,0,0,0,0],"split_type":[0,0,0,0,0,0,0,0,0,0,0,0,0,0,0],"sum_hessian":[1.3010688E3,9.4447656E2,3.5659232E2,3.437778E2,6.006987E2,3.3774527E2,1.8847034E1,1.4189725E2,2.0188057E2,4.44154E2,1.5654477E2,5.3138264E1,2.8460703E2,1.4454951E1,4.392083E0],"tree_param":{"num_deleted":"0","num_feature":"92","num_nodes":"15","size_leaf_vector":"1"}},{"base_weights":[1.5635557E-2,2.1510561E-1,-1.5831301E-2,2.5779083E-1,-1.0527905E-1,-4.7779214E-3,-2.8358552E-1,1.6680067E-2,5.673943E-3,-8.362907E-3,5.454383E-3,1.8570748E-3,-9.004144E-4,-0E0,-9.732303E-3],"categories":[],"categories_nodes":[],"categories_segments":[],"categories_sizes":[],"default_left":[0,0,0,0,1,0,0,0,0,0,0,0,0,0,0],"id":69,"left_children":[1,3,5,7,9,11,13,-1,-1,-1,-1,-1,-1,-1,-1],"loss_changes":[8.315593E0,2.5110407E0,3.3484902E0,1.7770977E0,1.6904472E0,2.709954E0,1.3123057E0,0E0,0E0,0E0,0E0,0E0,0E0,0E0,0E0],"parents":[2147483647,0,0,1,1,2,2,3,3,4,4,5,5,6,6],"right_children":[2,4,6,8,10,12,14,-1,-1,-1,-1,-1,-1,-1,-1],"split_conditions":[5.828773E0,6.5E0,1.8302547E1,7.6666665E0,2.7036703E-1,-1.6E0,1.456109E1,1.6680067E-2,5.673943E-3,-8.362907E-3,5.454383E-3,1.8570748E-3,-9.004144E-4,-0E0,-9.732303E-3],"split_indices":[70,30,70,38,22,78,48,0,0,0,0,0,0,0,0],"split_type":[0,0,0,0,0,0,0,0,0,0,0,0,0,0,0],"sum_hessian":[1.3201188E3,1.7951376E2,1.140605E3,1.5885661E2,2.0657156E1,1.0967217E3,4.3883335E1,9.453083E0,1.4940352E2,1.2250204E1,8.406951E0,3.0931277E2,7.874089E2,1.2406198E1,3.1477137E1],"tree_param":{"num_deleted":"0","num_feature":"92","num_nodes":"15","size_leaf_vector":"1"}},{"base_weights":[5.2142693E-3,-8.261896E-2,6.359284E-2,1.128508E-1,-1.2513188E-1,9.306346E-2,-1.0881463E-1,-3.4726772E-3,4.57157E-3,-8.532331E-3,-2.1446936E-3,5.4286765E-3,1.2373669E-3,2.9810637E-4,-9.152157E-3],"categories":[],"categories_nodes":[],"categories_segments":[],"categories_sizes":[],"default_left":[0,0,1,0,0,0,0,0,0,0,0,0,0,0,0],"id":70,"left_children":[1,3,5,7,9,11,13,-1,-1,-1,-1,-1,-1,-1,-1],"loss_changes":[6.7446384E0,4.3754454E0,4.0277414E0,1.6837211E0,3.6007361E0,3.6203413E0,3.6257224E0,0E0,0E0,0E0,0E0,0E0,0E0,0E0,0E0],"parents":[2147483647,0,0,1,1,2,2,3,3,4,4,5,5,6,6],"right_children":[2,4,6,8,10,12,14,-1,-1,-1,-1,-1,-1,-1,-1],"split_conditions":[1.0466216E1,8E0,1.1520587E2,1.3648926E1,-5.384667E-1,8.831883E0,3.3333333E0,-3.4726772E-3,4.57157E-3,-8.532331E-3,-2.1446936E-3,5.4286765E-3,1.2373669E-3,2.9810637E-4,-9.152157E-3],"split_indices":[32,27,46,36,81,67,50,0,0,0,0,0,0,0,0],"split_type":[0,0,0,0,0,0,0,0,0,0,0,0,0,0,0],"sum_hessian":[1.3137118E3,5.236813E2,7.900306E2,9.283398E1,4.3084726E2,6.755885E2,1.14442055E2,1.96743E1,7.3159676E1,6.477106E1,3.660762E2,1.7393723E2,5.0165128E2,7.827307E1,3.6168987E1],"tree_param":{"num_deleted":"0","num_feature":"92","num_nodes":"15","size_leaf_vector":"1"}},{"base_weights":[8.050292E-3,1.252251E-1,-3.7537437E-2,2.8798574E-1,7.560252E-2,-1.9561065E-2,-2.2143462E-1,8.048552E-3,-3.4189348E-3,-1.8468635E-3,3.4011807E-3,-2.1244723E-3,1.0567488E-3,1.029234E-3,-7.783556E-3],"categories":[],"categories_nodes":[],"categories_segments":[],"categories_sizes":[],"default_left":[0,0,0,0,0,0,0,0,0,0,0,0,0,0,0],"id":71,"left_children":[1,3,5,7,9,11,13,-1,-1,-1,-1,-1,-1,-1,-1],"loss_changes":[7.118274E0,2.9574857E0,3.1374683E0,1.3088346E0,2.6180644E0,3.543031E0,2.0393004E0,0E0,0E0,0E0,0E0,0E0,0E0,0E0,0E0],"parents":[2147483647,0,0,1,1,2,2,3,3,4,4,5,5,6,6],"right_children":[2,4,6,8,10,12,14,-1,-1,-1,-1,-1,-1,-1,-1],"split_conditions":[9.272727E0,4E0,6.115942E0,1.08127E2,3.504556E1,1.0477612E1,1.7E1,8.048552E-3,-3.4189348E-3,-1.8468635E-3,3.4011807E-3,-2.1244723E-3,1.0567488E-3,1.029234E-3,-7.783556E-3],"split_indices":[29,49,19,43,4,32,49,0,0,0,0,0,0,0,0],"split_type":[0,0,0,0,0,0,0,0,0,0,0,0,0,0,0],"sum_hessian":[1.329056E3,3.7237692E2,9.5667914E2,8.541137E1,2.8696555E2,8.729923E2,8.368685E1,7.95307E1,5.8806667E0,8.2088295E1,2.0487726E2,4.2479645E2,4.4819583E2,2.1198801E1,6.248805E1],"tree_param":{"num_deleted":"0","num_feature":"92","num_nodes":"15","size_leaf_vector":"1"}},{"base_weights":[1.8434232E-2,4.1144826E-2,-2.2271968E-1,2.5249213E-1,1.8976089E-2,-1.3820195E-1,-4.8608714E-1,7.0419447E-3,-8.170928E-3,-5.8249184E-3,8.2279876E-4,7.7854916E-3,-5.0177835E-3,-3.6908842E-3,-1.3505043E-2],"categories":[],"categories_nodes":[],"categories_segments":[],"categories_sizes":[],"default_left":[0,0,0,0,0,0,0,0,0,0,0,0,0,0,0],"id":72,"left_children":[1,3,5,7,9,11,13,-1,-1,-1,-1,-1,-1,-1,-1],"loss_changes":[7.1271205E0,5.5532236E0,2.3617253E0,1.9923816E0,3.7814455E0,2.480229E0,3.3694077E-1,0E0,0E0,0E0,0E0,0E0,0E0,0E0,0E0],"parents":[2147483647,0,0,1,1,2,2,3,3,4,4,5,5,6,6],"right_children":[2,4,6,8,10,12,14,-1,-1,-1,-1,-1,-1,-1,-1],"split_conditions":[5.4382153E0,-5.530303E0,7.625391E0,1.25E1,-1.6832833E0,1.4E1,4E-1,7.0419447E-3,-8.170928E-3,-5.8249184E-3,8.2279876E-4,7.7854916E-3,-5.0177835E-3,-3.6908842E-3,-1.3505043E-2],"split_indices":[19,19,31,24,22,15,78,0,0,0,0,0,0,0,0],"split_type":[0,0,0,0,0,0,0,0,0,0,0,0,0,0,0],"sum_hessian":[1.3019835E3,1.1910598E3,1.1092364E2,1.1165816E2,1.0794017E3,8.5416824E1,2.5506819E1,1.0695628E2,4.7018785E0,5.536988E1,1.0240319E3,9.744465E0,7.5672356E1,4.28473E0,2.1222088E1],"tree_param":{"num_deleted":"0","num_feature":"92","num_nodes":"15","size_leaf_vector":"1"}},{"base_weights":[-1.0618647E-2,1.2844783E-1,-5.1704183E-2,1.5790963E-1,-2.2773142E-1,1.4688407E-1,-7.4032895E-2,1.15230745E-2,3.1981263E-3,-9.241423E-3,7.2067394E-3,6.6162916E-3,-2.2471393E-3,-3.3019257E-3,-4.0465244E-4],"categories":[],